{"type":"LSTMTimeStep","options":{"inputSize":2,"hiddenLayers":[20],"outputSize":2,"decayRate":0.999,"smoothEps":1e-8,"regc":0.000001,"clipval":5},"hiddenLayers":[{"inputMatrix":{"rows":20,"columns":2,"weights":{"0":9.703680038452148,"1":0.8953067660331726,"2":1.272600531578064,"3":0.01572921685874462,"4":5.597573280334473,"5":0.8126877546310425,"6":-0.698144257068634,"7":0.5182398557662964,"8":-4.626765251159668,"9":-1.118704080581665,"10":-0.4819852113723755,"11":-0.040208909660577774,"12":-1.124393343925476,"13":0.11083144694566727,"14":0.18937775492668152,"15":2.2354743480682373,"16":-2.6218605041503906,"17":0.033840522170066833,"18":2.6108601093292236,"19":0.4200942814350128,"20":4.755519866943359,"21":1.7723890542984009,"22":-1.178580641746521,"23":1.395978569984436,"24":-3.861236333847046,"25":-0.30884549021720886,"26":-2.195937156677246,"27":4.740074157714844,"28":4.0240092277526855,"29":-0.0969272330403328,"30":1.745469570159912,"31":0.6740684509277344,"32":-4.78652811050415,"33":3.8430614471435547,"34":-3.9840495586395264,"35":-0.00725165382027626,"36":-1.4095613956451416,"37":0.007707726676017046,"38":-4.288321018218994,"39":-2.888571262359619}},"inputHidden":{"rows":20,"columns":20,"weights":{"0":-3.6106069087982178,"1":0.4266187846660614,"2":0.3639279901981354,"3":0.1933569312095642,"4":-0.1847449690103531,"5":-0.3226207196712494,"6":0.22610202431678772,"7":-0.46706756949424744,"8":-0.05973342806100845,"9":0.11442790180444717,"10":-2.2003304958343506,"11":1.559564471244812,"12":0.8473531603813171,"13":0.8594552278518677,"14":-2.103921890258789,"15":-4.864181041717529,"16":0.4044104218482971,"17":1.5188180208206177,"18":-3.244126081466675,"19":-0.2288481891155243,"20":-1.3064099550247192,"21":2.509983539581299,"22":-0.38801395893096924,"23":9.61903190612793,"24":0.17854084074497223,"25":2.345794200897217,"26":1.181434154510498,"27":1.4822334051132202,"28":0.3578594923019409,"29":-0.057213202118873596,"30":-1.1345895528793335,"31":1.1026277542114258,"32":-2.9726297855377197,"33":0.08835674822330475,"34":1.4189141988754272,"35":0.5096394419670105,"36":-2.494825839996338,"37":0.8307410478591919,"38":4.728817462921143,"39":0.15667366981506348,"40":-4.564951419830322,"41":6.507624626159668,"42":-7.033084869384766,"43":-3.103762626647949,"44":0.6227636337280273,"45":12.764948844909668,"46":-6.069332122802734,"47":-6.03839111328125,"48":-5.5513129234313965,"49":-0.09635112434625626,"50":-2.560621976852417,"51":2.9820241928100586,"52":6.944582462310791,"53":-6.89886999130249,"54":-1.5278737545013428,"55":1.9867390394210815,"56":-4.99454402923584,"57":0.7299317121505737,"58":-1.8000928163528442,"59":-5.211178779602051,"60":-0.2562467157840729,"61":-2.661832332611084,"62":1.4037870168685913,"63":1.3410789966583252,"64":-1.4627267122268677,"65":1.1902799606323242,"66":2.5624806880950928,"67":-0.6551924347877502,"68":-0.5670819282531738,"69":-0.1092979684472084,"70":-0.9870594143867493,"71":0.5625462532043457,"72":1.9101380109786987,"73":1.3834779262542725,"74":-0.5977280139923096,"75":-3.495896577835083,"76":-1.8333972692489624,"77":-2.46213960647583,"78":-3.7939488887786865,"79":0.9923531413078308,"80":1.6060285568237305,"81":12.228873252868652,"82":-5.47829008102417,"83":-16.63986587524414,"84":-11.943784713745117,"85":1.488191843032837,"86":-13.878695487976074,"87":-7.403449058532715,"88":-0.5638651847839355,"89":0.6617962718009949,"90":2.471412181854248,"91":3.1969895362854004,"92":0.3105761408805847,"93":-4.260202407836914,"94":0.5103219151496887,"95":-4.146636962890625,"96":5.38773775100708,"97":-4.032846927642822,"98":8.404996871948242,"99":5.5879106521606445,"100":1.846075177192688,"101":1.2807565927505493,"102":-0.10273133963346481,"103":-1.236368179321289,"104":-1.421382188796997,"105":-0.21180863678455353,"106":-1.057581901550293,"107":-0.8675887584686279,"108":-1.252057433128357,"109":3.2096059322357178,"110":0.9518244862556458,"111":-0.4921799898147583,"112":2.398707389831543,"113":-0.7708086371421814,"114":4.871206760406494,"115":-1.8580044507980347,"116":11.56573486328125,"117":1.5893139839172363,"118":1.9179134368896484,"119":-1.2904826402664185,"120":-12.639841079711914,"121":-4.471980571746826,"122":1.5595759153366089,"123":6.918004989624023,"124":-1.8209998607635498,"125":7.806507110595703,"126":-13.57204818725586,"127":0.12372589111328125,"128":-2.24647855758667,"129":5.397431373596191,"130":-2.0803143978118896,"131":0.021396558731794357,"132":-2.76224684715271,"133":-0.1468639373779297,"134":5.812419891357422,"135":-10.728376388549805,"136":0.10810346156358719,"137":-8.104476928710938,"138":-5.671473503112793,"139":2.412564992904663,"140":1.418161153793335,"141":-1.0320689678192139,"142":-1.474783182144165,"143":2.0516674518585205,"144":-4.103322505950928,"145":-0.19067327678203583,"146":0.66659015417099,"147":2.3161182403564453,"148":-0.6458246111869812,"149":1.405689001083374,"150":0.4292616844177246,"151":2.034996747970581,"152":-0.7792941331863403,"153":-1.8356596231460571,"154":-0.45854663848876953,"155":0.6531844735145569,"156":-0.08936995267868042,"157":0.10400567203760147,"158":0.8852449059486389,"159":0.4126482307910919,"160":-5.660078048706055,"161":1.7506630420684814,"162":2.8826100826263428,"163":7.522061347961426,"164":1.7676944732666016,"165":4.959705352783203,"166":-0.07651960104703903,"167":8.941055297851562,"168":2.590285539627075,"169":-3.472282886505127,"170":2.0076773166656494,"171":1.021820306777954,"172":-5.406332969665527,"173":0.7510712742805481,"174":7.739625453948975,"175":3.059462547302246,"176":-4.003255844116211,"177":-9.455870628356934,"178":1.0241544246673584,"179":4.964422702789307,"180":-2.683936834335327,"181":2.708946466445923,"182":-0.7171948552131653,"183":6.5979766845703125,"184":-5.65786600112915,"185":1.5382901430130005,"186":-3.4860692024230957,"187":-1.9215033054351807,"188":-0.31919971108436584,"189":0.015657732263207436,"190":0.3971426486968994,"191":0.44001466035842896,"192":3.7423577308654785,"193":0.266554594039917,"194":-1.3337409496307373,"195":0.9372051358222961,"196":-2.5008864402770996,"197":1.563444972038269,"198":2.3615074157714844,"199":-0.2636582553386688,"200":-0.027075940743088722,"201":0.7500743269920349,"202":0.18886007368564606,"203":7.1526031494140625,"204":-0.49060335755348206,"205":0.7467547059059143,"206":0.4066757559776306,"207":0.9919069409370422,"208":-0.6681694984436035,"209":0.39147812128067017,"210":-0.6896359324455261,"211":0.41664355993270874,"212":-0.8842001557350159,"213":0.6675910949707031,"214":-0.4877496063709259,"215":0.2984519600868225,"216":-0.012784738093614578,"217":-1.0552204847335815,"218":-1.9301388263702393,"219":0.014986231923103333,"220":3.560167074203491,"221":-2.5422511100769043,"222":0.6487781405448914,"223":-2.7583768367767334,"224":0.01594541408121586,"225":2.3018574714660645,"226":0.6623508930206299,"227":1.4580235481262207,"228":-3.4452574253082275,"229":1.8961033821105957,"230":-1.933517336845398,"231":1.0368168354034424,"232":-0.11653821170330048,"233":0.29335471987724304,"234":0.9059357047080994,"235":2.5866522789001465,"236":-0.305296927690506,"237":-9.321085929870605,"238":-2.172271251678467,"239":1.295334815979004,"240":-0.9311942458152771,"241":-1.825864553451538,"242":0.29109305143356323,"243":8.103902816772461,"244":-2.128842830657959,"245":1.6327216625213623,"246":0.39261218905448914,"247":5.300134658813477,"248":-0.8047087788581848,"249":-1.1113104820251465,"250":-2.639583110809326,"251":0.9995436668395996,"252":4.6859283447265625,"253":-0.11866225302219391,"254":0.37619876861572266,"255":0.4897465109825134,"256":-2.1324989795684814,"257":-1.0148049592971802,"258":-0.17211481928825378,"259":0.5413510203361511,"260":-0.9718446135520935,"261":-4.47967529296875,"262":0.06952093541622162,"263":-1.5647244453430176,"264":-1.4807771444320679,"265":0.097223199903965,"266":-0.5115798711776733,"267":2.394160509109497,"268":-0.9493405818939209,"269":-0.8771253824234009,"270":0.18637673556804657,"271":-0.8522841930389404,"272":-2.3626065254211426,"273":-3.2504591941833496,"274":0.1137397512793541,"275":-1.618741512298584,"276":-0.0115562928840518,"277":-0.7495124340057373,"278":-0.3731285035610199,"279":2.26705265045166,"280":9.687163352966309,"281":-1.8360590934753418,"282":4.24284029006958,"283":-11.079506874084473,"284":3.0816996097564697,"285":-1.5156702995300293,"286":-2.047743797302246,"287":1.1728415489196777,"288":-0.0772903636097908,"289":-3.2198240756988525,"290":2.027924060821533,"291":-3.4295623302459717,"292":5.3705153465271,"293":-1.169411063194275,"294":2.271502733230591,"295":-1.4219114780426025,"296":1.3075426816940308,"297":-1.1343753337860107,"298":-9.10003662109375,"299":6.601070880889893,"300":-0.4959104359149933,"301":-1.2120651006698608,"302":0.794416069984436,"303":11.291045188903809,"304":-0.31935200095176697,"305":0.7226663827896118,"306":0.22837992012500763,"307":0.6848421096801758,"308":-0.60026615858078,"309":-0.7121002674102783,"310":-0.6831530928611755,"311":0.43762096762657166,"312":0.22245214879512787,"313":0.6556673049926758,"314":0.8317677974700928,"315":-0.20306232571601868,"316":-0.848822832107544,"317":-3.216055154800415,"318":-1.486798644065857,"319":0.7244810461997986,"320":-3.613647937774658,"321":-2.412466526031494,"322":0.9364429116249084,"323":-15.793828964233398,"324":1.990360975265503,"325":4.8844194412231445,"326":-1.0646456480026245,"327":3.340125560760498,"328":-1.1032243967056274,"329":-1.4286350011825562,"330":-2.7450666427612305,"331":0.4436994791030884,"332":2.456306219100952,"333":3.7925362586975098,"334":4.032067775726318,"335":2.776761531829834,"336":-2.3912193775177,"337":-0.2710840106010437,"338":-1.4826489686965942,"339":1.3100261688232422,"340":-2.9825332164764404,"341":-5.353183746337891,"342":-0.0725453644990921,"343":20.71074867248535,"344":-0.7021238207817078,"345":1.6237908601760864,"346":0.07043921947479248,"347":1.6904579401016235,"348":-2.0507397651672363,"349":-0.6954711079597473,"350":-1.1264108419418335,"351":1.1560084819793701,"352":5.871778964996338,"353":0.2888058125972748,"354":2.591207265853882,"355":0.7630228996276855,"356":-0.47039344906806946,"357":-6.7475481033325195,"358":-3.3012778759002686,"359":4.328083515167236,"360":-0.23388032615184784,"361":0.5018681883811951,"362":-0.05639956146478653,"363":-0.41307348012924194,"364":-1.2008088827133179,"365":1.5119370222091675,"366":-0.25903046131134033,"367":-1.2155802249908447,"368":-0.3874600827693939,"369":-0.9348005056381226,"370":-0.686642587184906,"371":0.6254420280456543,"372":2.483916759490967,"373":-3.282581090927124,"374":-1.671436071395874,"375":-0.46345454454421997,"376":-1.5800808668136597,"377":-0.44920122623443604,"378":0.808694064617157,"379":2.690349578857422,"380":-8.710610389709473,"381":-0.8008730411529541,"382":-3.0766441822052,"383":18.29328727722168,"384":-0.5277352333068848,"385":-2.5395243167877197,"386":-3.6683623790740967,"387":1.258574366569519,"388":-0.8108243942260742,"389":4.610156536102295,"390":-0.6316774487495422,"391":-1.335891842842102,"392":1.0187479257583618,"393":0.08852598071098328,"394":0.3040952682495117,"395":-12.832697868347168,"396":-2.2361838817596436,"397":2.292227268218994,"398":-1.130755066871643,"399":-0.29460620880126953}},"inputBias":{"rows":20,"columns":1,"weights":{"0":0.39397767186164856,"1":1.0264345407485962,"2":8.94408130645752,"3":1.1959753036499023,"4":9.507545471191406,"5":0.6975955963134766,"6":8.48839282989502,"7":-0.43365979194641113,"8":17.519840240478516,"9":6.898132801055908,"10":1.7447606325149536,"11":3.989196538925171,"12":9.256173133850098,"13":1.9444712400436401,"14":10.036952018737793,"15":0.8683257699012756,"16":17.124555587768555,"17":17.564350128173828,"18":2.7459208965301514,"19":4.0639777183532715}},"forgetMatrix":{"rows":20,"columns":2,"weights":{"0":2.9299569129943848,"1":2.7964541912078857,"2":-2.0922658443450928,"3":-0.17614281177520752,"4":0.034157171845436096,"5":0.787571132183075,"6":2.0165598392486572,"7":0.14105799794197083,"8":-2.385791301727295,"9":-2.5546534061431885,"10":-0.9448823928833008,"11":-0.005228022579103708,"12":1.1263575553894043,"13":-2.2936723232269287,"14":1.308606743812561,"15":-2.3777713775634766,"16":2.1036860942840576,"17":-2.0128915309906006,"18":-3.112699270248413,"19":0.017820162698626518,"20":2.9411375522613525,"21":-2.871699333190918,"22":2.252674102783203,"23":-0.6808567643165588,"24":7.045163631439209,"25":-0.037837445735931396,"26":-1.9482638835906982,"27":1.5873498916625977,"28":-0.8172525763511658,"29":2.3315484523773193,"30":1.7532734870910645,"31":0.5020955801010132,"32":-0.047200288623571396,"33":-0.006925737950950861,"34":24.58878517150879,"35":-0.41257911920547485,"36":11.378904342651367,"37":-1.9116562604904175,"38":1.3745838403701782,"39":5.271246433258057}},"forgetHidden":{"rows":20,"columns":20,"weights":{"0":0.15418879687786102,"1":1.2066805362701416,"2":2.9393672943115234,"3":3.361402750015259,"4":2.123656988143921,"5":-3.433151960372925,"6":-3.123832941055298,"7":-6.592651844024658,"8":2.839834451675415,"9":-7.447451114654541,"10":1.702658772468567,"11":-1.0969544649124146,"12":0.42146119475364685,"13":-0.12467888742685318,"14":0.3282531499862671,"15":-4.938096523284912,"16":1.0902942419052124,"17":-3.0636062622070312,"18":-3.6979451179504395,"19":-2.2609806060791016,"20":2.152012348175049,"21":-0.9254468679428101,"22":-0.9596486687660217,"23":-10.622735023498535,"24":-1.9773863554000854,"25":-1.1297919750213623,"26":1.945518136024475,"27":-1.0041322708129883,"28":-2.1953089237213135,"29":0.8410628437995911,"30":-0.47678282856941223,"31":-2.1782538890838623,"32":1.3807293176651,"33":-2.073802947998047,"34":-1.865858793258667,"35":-0.44473719596862793,"36":-0.919482946395874,"37":1.9829260110855103,"38":-1.3312368392944336,"39":-1.5920984745025635,"40":2.139836072921753,"41":-3.200153350830078,"42":7.177401065826416,"43":-13.097894668579102,"44":6.58563232421875,"45":0.45497646927833557,"46":12.758138656616211,"47":3.711094379425049,"48":7.824376583099365,"49":-6.126701831817627,"50":-1.3918732404708862,"51":2.1732699871063232,"52":3.030839204788208,"53":-0.5163306593894958,"54":5.578193187713623,"55":3.080369234085083,"56":2.556749105453491,"57":-0.9084823131561279,"58":1.9128514528274536,"59":3.777367353439331,"60":-2.7808568477630615,"61":1.333446741104126,"62":0.9485481977462769,"63":-5.588264465332031,"64":-0.9698493480682373,"65":-3.0055441856384277,"66":-0.5103145837783813,"67":-16.161182403564453,"68":-4.096180438995361,"69":2.4083251953125,"70":3.704730749130249,"71":-3.2977120876312256,"72":-1.4617356061935425,"73":2.8938028812408447,"74":-1.6561074256896973,"75":-2.630152702331543,"76":-3.0207228660583496,"77":-2.544471502304077,"78":-3.04408597946167,"79":-0.011468266136944294,"80":1.9286327362060547,"81":-1.3616406917572021,"82":-1.6172374486923218,"83":26.21792221069336,"84":1.3534337282180786,"85":0.47555962204933167,"86":2.4053752422332764,"87":-0.3628561496734619,"88":2.257906436920166,"89":0.9934280514717102,"90":0.059989083558321,"91":-0.70853590965271,"92":-1.3097810745239258,"93":-1.1829662322998047,"94":1.5965163707733154,"95":0.21207356452941895,"96":0.05554019659757614,"97":1.4849056005477905,"98":3.199092149734497,"99":-1.0677738189697266,"100":-10.013650894165039,"101":-4.156013011932373,"102":-1.6670398712158203,"103":-40.14459991455078,"104":-1.4294486045837402,"105":2.475914716720581,"106":0.17091569304466248,"107":-9.909528732299805,"108":-2.4846811294555664,"109":-0.0300893634557724,"110":0.1677837371826172,"111":2.047487258911133,"112":5.1386895179748535,"113":1.7257769107818604,"114":2.3551697731018066,"115":-2.4135751724243164,"116":3.5173919200897217,"117":-0.7978630065917969,"118":-2.954939603805542,"119":-1.3493098020553589,"120":-6.682059288024902,"121":22.047374725341797,"122":3.5844781398773193,"123":-13.102757453918457,"124":-2.4029266834259033,"125":-45.26565933227539,"126":-6.177711486816406,"127":-10.150701522827148,"128":-0.5817956328392029,"129":-7.139718055725098,"130":5.098205089569092,"131":-6.962613105773926,"132":-1.4797704219818115,"133":4.5277791023254395,"134":9.146092414855957,"135":-12.791316986083984,"136":10.044730186462402,"137":7.153901100158691,"138":10.684627532958984,"139":-2.007288694381714,"140":4.452834606170654,"141":1.4215872287750244,"142":2.579577922821045,"143":3.3787076473236084,"144":-1.0552287101745605,"145":1.4374821186065674,"146":-3.1171369552612305,"147":7.851583003997803,"148":0.5196208357810974,"149":-2.992711305618286,"150":4.139723777770996,"151":-0.4079645872116089,"152":-0.41958945989608765,"153":3.143510580062866,"154":0.14690616726875305,"155":-10.005460739135742,"156":0.14747688174247742,"157":-5.196484088897705,"158":0.5031731724739075,"159":-1.058643102645874,"160":26.154207229614258,"161":-15.422920227050781,"162":12.588210105895996,"163":9.320520401000977,"164":-5.533050537109375,"165":3.3687539100646973,"166":-2.78873610496521,"167":3.1126272678375244,"168":0.35874345898628235,"169":6.981557846069336,"170":1.0624152421951294,"171":2.8633828163146973,"172":-13.194666862487793,"173":11.527997970581055,"174":-5.833747386932373,"175":-9.337352752685547,"176":7.385005950927734,"177":19.698030471801758,"178":8.254798889160156,"179":12.591451644897461,"180":3.504582643508911,"181":-5.2688703536987305,"182":2.992548942565918,"183":-3.6833231449127197,"184":1.5403313636779785,"185":2.8178420066833496,"186":-2.977809429168701,"187":-6.799953460693359,"188":3.8949594497680664,"189":0.6581315994262695,"190":-0.46630924940109253,"191":-3.6190755367279053,"192":23.050092697143555,"193":0.20721179246902466,"194":-4.530479431152344,"195":-3.423309326171875,"196":-4.029353618621826,"197":10.543669700622559,"198":5.967612266540527,"199":-11.525542259216309,"200":-0.24552786350250244,"201":1.6018953323364258,"202":0.6728537678718567,"203":6.470455646514893,"204":-1.1204968690872192,"205":0.12972360849380493,"206":0.3839763402938843,"207":0.14411169290542603,"208":-0.00847349688410759,"209":3.0938467979431152,"210":-1.7800159454345703,"211":0.03990644961595535,"212":1.191450834274292,"213":3.65328049659729,"214":-2.217031478881836,"215":-1.7292208671569824,"216":-1.7648719549179077,"217":14.845315933227539,"218":-1.4418503046035767,"219":-0.9245743155479431,"220":-1.9077280759811401,"221":-1.039586067199707,"222":0.30636632442474365,"223":-6.549779891967773,"224":-1.8281012773513794,"225":-0.9777190685272217,"226":-0.3013836741447449,"227":0.677846372127533,"228":0.9328667521476746,"229":0.19293007254600525,"230":0.276317834854126,"231":-1.3936794996261597,"232":0.7399982810020447,"233":0.46516749262809753,"234":0.5962283611297607,"235":0.2566928565502167,"236":-0.5870024561882019,"237":-0.31672459840774536,"238":3.0370588302612305,"239":2.339293956756592,"240":-0.017113927751779556,"241":7.368808269500732,"242":-0.8353912234306335,"243":-7.560968399047852,"244":6.823019027709961,"245":-2.586947441101074,"246":-7.6796698570251465,"247":1.754104495048523,"248":-0.10823503881692886,"249":-1.1391106843948364,"250":1.4088953733444214,"251":-0.6708855628967285,"252":1.0360678434371948,"253":-4.821773052215576,"254":-6.73848819732666,"255":-5.290473937988281,"256":-1.826647400856018,"257":13.647114753723145,"258":9.439288139343262,"259":-0.03661072999238968,"260":-2.887126922607422,"261":-3.3161816596984863,"262":0.11574939638376236,"263":-1.996791124343872,"264":2.900151252746582,"265":2.0870728492736816,"266":1.0947248935699463,"267":4.555412292480469,"268":-2.4444377422332764,"269":-0.8958366513252258,"270":-0.453086793422699,"271":-0.4473113715648651,"272":4.85142183303833,"273":3.9548208713531494,"274":0.4221110939979553,"275":3.5236525535583496,"276":0.37143513560295105,"277":-3.180689811706543,"278":1.6136317253112793,"279":-0.6417844295501709,"280":6.39265775680542,"281":0.5663387775421143,"282":-3.068329334259033,"283":24.011388778686523,"284":1.0022653341293335,"285":5.503491401672363,"286":1.0113260746002197,"287":1.3866806030273438,"288":-0.08633186668157578,"289":0.06047418341040611,"290":1.3751068115234375,"291":-2.7326014041900635,"292":5.791278839111328,"293":6.371827602386475,"294":-1.9272152185440063,"295":-8.654786109924316,"296":-0.45252758264541626,"297":-7.663816928863525,"298":-4.186108112335205,"299":-1.5160367488861084,"300":-0.9139183163642883,"301":-6.200242042541504,"302":2.1239094734191895,"303":-37.224246978759766,"304":-1.5922962427139282,"305":3.806915521621704,"306":0.06112483888864517,"307":-0.5597834587097168,"308":-1.8863321542739868,"309":-0.33107101917266846,"310":-1.4421918392181396,"311":-1.205236792564392,"312":1.5531400442123413,"313":0.8336887359619141,"314":1.8098677396774292,"315":0.31123167276382446,"316":-1.4532006978988647,"317":-0.3011147379875183,"318":-1.3594928979873657,"319":0.2422347366809845,"320":-0.7940542697906494,"321":-9.853758811950684,"322":-0.5747559070587158,"323":-27.86482810974121,"324":3.2067477703094482,"325":0.37962159514427185,"326":-0.3826158940792084,"327":-0.685920774936676,"328":1.0803414583206177,"329":-1.3655482530593872,"330":-0.35774242877960205,"331":-0.012525038793683052,"332":8.086386680603027,"333":0.40464457869529724,"334":2.223536491394043,"335":1.9448177814483643,"336":-0.6698808670043945,"337":-1.5092180967330933,"338":-16.248525619506836,"339":5.573868274688721,"340":4.484908580780029,"341":7.145162105560303,"342":2.798955202102661,"343":-1.0139355659484863,"344":-5.522645473480225,"345":7.14488410949707,"346":-0.19626857340335846,"347":-4.089339256286621,"348":-0.7614656090736389,"349":4.7827582359313965,"350":1.097812533378601,"351":-4.777892112731934,"352":19.36940574645996,"353":-1.5098371505737305,"354":-2.059983491897583,"355":3.1937875747680664,"356":-4.297049045562744,"357":6.863344192504883,"358":0.3720380663871765,"359":-7.29843282699585,"360":6.962776184082031,"361":6.185109615325928,"362":1.427565336227417,"363":-6.032281875610352,"364":-2.1629624366760254,"365":-7.190863132476807,"366":0.8997551798820496,"367":-4.556669235229492,"368":-10.39504337310791,"369":-8.014272689819336,"370":12.44257640838623,"371":0.4760109782218933,"372":18.732006072998047,"373":-1.7858855724334717,"374":2.0784666538238525,"375":-11.987815856933594,"376":8.081889152526855,"377":19.22138786315918,"378":-2.0596418380737305,"379":5.379601001739502,"380":22.325639724731445,"381":-20.92870330810547,"382":0.41825592517852783,"383":-1.7336933612823486,"384":8.652918815612793,"385":-3.517035484313965,"386":0.028743254020810127,"387":1.1354855298995972,"388":-2.747612237930298,"389":-0.15825755894184113,"390":0.38290607929229736,"391":-0.38828596472740173,"392":-1.9503806829452515,"393":2.6205179691314697,"394":-2.1144533157348633,"395":3.4857635498046875,"396":-1.6376478672027588,"397":6.964779376983643,"398":-1.086596131324768,"399":1.635484218597412}},"forgetBias":{"rows":20,"columns":1,"weights":{"0":0,"1":0,"2":0,"3":0,"4":0,"5":0,"6":0,"7":0,"8":0,"9":0,"10":0,"11":0,"12":0,"13":0,"14":0,"15":0,"16":0,"17":0,"18":0,"19":0}},"outputMatrix":{"rows":20,"columns":2,"weights":{"0":-1.0231374502182007,"1":0.06470470130443573,"2":-3.3714518547058105,"3":0.4438101053237915,"4":-5.003044128417969,"5":4.322582721710205,"6":1.9172559976577759,"7":-0.10449540615081787,"8":7.852223873138428,"9":-0.04803254082798958,"10":32.999027252197266,"11":2.5267879962921143,"12":0.14673687517642975,"13":-0.006028423551470041,"14":-0.3146815299987793,"15":0.0007786475471220911,"16":7.389139652252197,"17":0.035454872995615005,"18":-3.329202890396118,"19":0.07952621579170227,"20":2.240398406982422,"21":0.22623509168624878,"22":2.7856860160827637,"23":0.08724851161241531,"24":-3.5399136543273926,"25":0.03290857374668121,"26":4.130507946014404,"27":4.169826030731201,"28":3.236241102218628,"29":3.4921340942382812,"30":-0.7718470692634583,"31":0.05960513651371002,"32":-6.3059563636779785,"33":-0.09355542063713074,"34":11.768644332885742,"35":6.759279251098633,"36":-2.039433002471924,"37":2.820232629776001,"38":0.026893405243754387,"39":4.401674270629883}},"outputHidden":{"rows":20,"columns":20,"weights":{"0":-0.07130404561758041,"1":0.5743249654769897,"2":-0.6415591239929199,"3":-2.249293327331543,"4":-1.009437084197998,"5":0.7683340907096863,"6":0.5780486464500427,"7":0.8846659660339355,"8":-0.49234506487846375,"9":-1.4372419118881226,"10":-1.2147802114486694,"11":0.5269767642021179,"12":-0.42269325256347656,"13":-0.39695221185684204,"14":-4.31856632232666,"15":-0.12270494550466537,"16":-1.30086088180542,"17":-0.5999601483345032,"18":0.9989064931869507,"19":-0.7622861266136169,"20":10.747861862182617,"21":9.58227825164795,"22":0.4449377655982971,"23":2.6651687622070312,"24":-0.22689662873744965,"25":1.5056111812591553,"26":0.03733403980731964,"27":-1.4980660676956177,"28":-2.756554126739502,"29":-1.4370850324630737,"30":-3.5093166828155518,"31":-2.1883468627929688,"32":1.5016695261001587,"33":4.782336235046387,"34":2.37377667427063,"35":1.8166109323501587,"36":1.1413770914077759,"37":1.800863265991211,"38":-0.488937109708786,"39":-2.8517820835113525,"40":-5.191995620727539,"41":1.9129176139831543,"42":-0.8634624481201172,"43":-1.940077781677246,"44":-1.8202202320098877,"45":8.686742782592773,"46":-0.5600752830505371,"47":9.33676815032959,"48":-2.355167865753174,"49":-1.4869886636734009,"50":-4.459615707397461,"51":-0.4128483533859253,"52":5.514048099517822,"53":2.5764424800872803,"54":5.352909564971924,"55":2.477916717529297,"56":-0.46420925855636597,"57":2.1180131435394287,"58":-0.8964062929153442,"59":0.7253831028938293,"60":9.039238929748535,"61":-5.728631019592285,"62":-3.366452217102051,"63":-0.7162900567054749,"64":1.421200156211853,"65":-3.6537373065948486,"66":-2.3689987659454346,"67":-4.960718631744385,"68":2.599215269088745,"69":4.0109453201293945,"70":5.604323387145996,"71":-3.5757501125335693,"72":5.422195911407471,"73":-2.218931198120117,"74":4.26339864730835,"75":-8.20296573638916,"76":5.454435348510742,"77":-5.598733901977539,"78":-2.6074118614196777,"79":4.379881858825684,"80":1.6488028764724731,"81":4.296443462371826,"82":-6.917166709899902,"83":11.626834869384766,"84":-8.897396087646484,"85":0.3986414670944214,"86":1.1633020639419556,"87":-4.0527191162109375,"88":-3.02103328704834,"89":5.534567832946777,"90":-0.9935621619224548,"91":-2.1665430068969727,"92":0.3814736306667328,"93":3.0463767051696777,"94":2.0579848289489746,"95":-1.830675482749939,"96":4.744043350219727,"97":-3.4698193073272705,"98":14.230389595031738,"99":3.2789430618286133,"100":-1.5447347164154053,"101":-0.11327118426561356,"102":0.49809104204177856,"103":-1.3658486604690552,"104":0.025108372792601585,"105":-5.606462478637695,"106":-0.3208928108215332,"107":-0.4013729989528656,"108":-0.6600068211555481,"109":-0.039592284709215164,"110":-0.5078095197677612,"111":-0.9310413599014282,"112":0.38963082432746887,"113":1.243132472038269,"114":0.6911526918411255,"115":-0.6186159253120422,"116":-1.0385276079177856,"117":-3.2638065814971924,"118":-0.6803098917007446,"119":0.3332647681236267,"120":-2.9221057891845703,"121":4.057150363922119,"122":0.8846392035484314,"123":-3.428982973098755,"124":-1.1568297147750854,"125":2.0757346153259277,"126":0.5726099014282227,"127":2.935847282409668,"128":-0.18180343508720398,"129":0.7552613019943237,"130":-2.1559183597564697,"131":2.3650851249694824,"132":-1.103893518447876,"133":1.3400222063064575,"134":-2.499638080596924,"135":1.2078725099563599,"136":-1.3280410766601562,"137":-2.158282995223999,"138":-5.667538642883301,"139":0.8041558265686035,"140":-1.0425952672958374,"141":-0.014411896467208862,"142":-2.992405891418457,"143":2.1363117694854736,"144":-0.11587858945131302,"145":-0.26857316493988037,"146":0.024425838142633438,"147":1.4527119398117065,"148":-0.5225046277046204,"149":1.1565418243408203,"150":1.8501489162445068,"151":0.9760491847991943,"152":-3.2458438873291016,"153":0.008235174231231213,"154":1.1051836013793945,"155":0.9782059192657471,"156":-0.679868221282959,"157":2.2089405059814453,"158":8.911948204040527,"159":-3.505625009536743,"160":4.164482593536377,"161":4.066055774688721,"162":0.7773368954658508,"163":-2.374727249145508,"164":0.04635630175471306,"165":2.511610269546509,"166":-0.6112700700759888,"167":1.0440565347671509,"168":1.0100133419036865,"169":3.101182460784912,"170":2.146881103515625,"171":-5.946883678436279,"172":6.153497695922852,"173":-1.8063697814941406,"174":-0.33504927158355713,"175":-8.428750991821289,"176":2.9133682250976562,"177":-5.454694747924805,"178":-1.6008301973342896,"179":-1.9369480609893799,"180":-4.992486476898193,"181":0.9659356474876404,"182":0.9972450733184814,"183":-2.2443058490753174,"184":-1.5102542638778687,"185":1.4517500400543213,"186":0.17078502476215363,"187":-1.059016227722168,"188":-0.0832507386803627,"189":1.0645902156829834,"190":-0.4387592673301697,"191":-0.7664944529533386,"192":-0.6897185444831848,"193":1.2222132682800293,"194":-3.2534897327423096,"195":-4.098982810974121,"196":-1.3816423416137695,"197":-1.4381390810012817,"198":-3.7751448154449463,"199":1.622470498085022,"200":-0.19721408188343048,"201":-0.1866571456193924,"202":-0.6437743902206421,"203":-2.549095630645752,"204":0.27728378772735596,"205":-1.3787713050842285,"206":-2.171365261077881,"207":1.5556602478027344,"208":-0.30431270599365234,"209":-0.14895518124103546,"210":-0.9969959855079651,"211":-1.3105103969573975,"212":-2.4544334411621094,"213":-0.1868346929550171,"214":0.6346814632415771,"215":-0.06157107651233673,"216":1.9456095695495605,"217":1.6616637706756592,"218":1.2060370445251465,"219":1.5465902090072632,"220":0.00434209406375885,"221":-3.5557539463043213,"222":-0.040843263268470764,"223":-4.520534992218018,"224":-2.9030466079711914,"225":3.508178234100342,"226":1.5475653409957886,"227":-1.9734580516815186,"228":-0.38813111186027527,"229":-0.2523207366466522,"230":-1.170935034751892,"231":1.981498122215271,"232":2.7320940494537354,"233":-2.6202900409698486,"234":-1.8146239519119263,"235":-0.5294572114944458,"236":2.2599706649780273,"237":1.1162488460540771,"238":-1.118004560470581,"239":1.1902899742126465,"240":-4.019917964935303,"241":0.6177064776420593,"242":0.3536601960659027,"243":-1.8573898077011108,"244":-0.9197141528129578,"245":-0.8382166624069214,"246":0.6318713426589966,"247":-0.2724114656448364,"248":-1.5040911436080933,"249":0.048139847815036774,"250":2.399009943008423,"251":-4.449833869934082,"252":2.4437613487243652,"253":-4.974464416503906,"254":-3.2137439250946045,"255":-4.925788879394531,"256":1.6413003206253052,"257":0.8612282276153564,"258":-0.9072355628013611,"259":0.21603554487228394,"260":1.3710235357284546,"261":0.8003773093223572,"262":3.8588037490844727,"263":9.597807884216309,"264":-1.124989628791809,"265":7.248497486114502,"266":-2.599820852279663,"267":-13.813676834106445,"268":0.18575231730937958,"269":-3.72625732421875,"270":-6.833279132843018,"271":-2.0658717155456543,"272":-13.608311653137207,"273":3.3223063945770264,"274":-3.353695869445801,"275":1.2479937076568604,"276":0.9539593458175659,"277":-1.1322108507156372,"278":-20.160367965698242,"279":0.7706477642059326,"280":-1.5799734592437744,"281":-5.627554416656494,"282":-0.14990831911563873,"283":-2.024714469909668,"284":3.5069642066955566,"285":-2.5512139797210693,"286":-1.6712194681167603,"287":10.43767261505127,"288":2.0120105743408203,"289":-1.3869003057479858,"290":2.4980533123016357,"291":-5.033264636993408,"292":3.2471110820770264,"293":1.8184046745300293,"294":-1.4316210746765137,"295":0.8577710390090942,"296":0.29684364795684814,"297":4.968095779418945,"298":-4.70156192779541,"299":-3.134225606918335,"300":-0.13666993379592896,"301":3.467377185821533,"302":0.21064116060733795,"303":0.4716005325317383,"304":0.5006223917007446,"305":0.11363613605499268,"306":1.5602490901947021,"307":-0.6584033370018005,"308":-0.5747729539871216,"309":0.5086417198181152,"310":-1.02023446559906,"311":1.5881153345108032,"312":0.4558808505535126,"313":-3.0242273807525635,"314":-0.9476520419120789,"315":-0.3825165331363678,"316":-0.8728876709938049,"317":1.2116628885269165,"318":-0.37679165601730347,"319":1.8848316669464111,"320":-16.515127182006836,"321":10.484190940856934,"322":-11.598197937011719,"323":0.24796873331069946,"324":-3.2118375301361084,"325":-10.766891479492188,"326":-4.490283966064453,"327":-10.436930656433105,"328":4.649669647216797,"329":4.559567451477051,"330":0.6643689274787903,"331":-17.604860305786133,"332":3.042107105255127,"333":-4.756558895111084,"334":6.534939289093018,"335":8.981395721435547,"336":-1.3498855829238892,"337":-0.8202080130577087,"338":-2.1067922115325928,"339":-3.2199463844299316,"340":3.079777956008911,"341":0.8875994086265564,"342":-3.384781837463379,"343":9.040748596191406,"344":28.564237594604492,"345":9.836424827575684,"346":-3.6977739334106445,"347":2.2058017253875732,"348":-1.6122478246688843,"349":-1.5338631868362427,"350":0.3173380196094513,"351":1.2106016874313354,"352":-5.61093807220459,"353":-4.645996570587158,"354":-0.3775310814380646,"355":-2.574026107788086,"356":-0.26789116859436035,"357":-1.615802526473999,"358":6.081264495849609,"359":1.3476482629776,"360":-2.173793077468872,"361":2.696368932723999,"362":-0.16946876049041748,"363":-7.271999359130859,"364":-0.814608097076416,"365":-1.5554888248443604,"366":-0.2869708836078644,"367":-0.39413920044898987,"368":-2.2366983890533447,"369":-0.6924684643745422,"370":-0.00519163440912962,"371":-1.1564128398895264,"372":-1.1684104204177856,"373":2.414506435394287,"374":1.3167414665222168,"375":1.7323909997940063,"376":-0.5578527450561523,"377":2.0677292346954346,"378":-6.100326061248779,"379":0.7915979623794556,"380":-0.4327749013900757,"381":-3.9450411796569824,"382":0.4376359283924103,"383":-9.02780532836914,"384":-1.7202171087265015,"385":-2.5255653858184814,"386":-0.14630486071109772,"387":0.8503327965736389,"388":-2.79455828666687,"389":-1.198067307472229,"390":1.294967770576477,"391":-1.9389015436172485,"392":-15.037352561950684,"393":0.5129820704460144,"394":-6.0531439781188965,"395":-0.5051445364952087,"396":0.6385700106620789,"397":-1.7849622964859009,"398":-7.47188138961792,"399":1.523094892501831}},"outputBias":{"rows":20,"columns":1,"weights":{"0":1.0630158185958862,"1":4.396936416625977,"2":5.875111103057861,"3":0.9538098573684692,"4":9.850635528564453,"5":-0.020691152662038803,"6":9.213297843933105,"7":1.5050667524337769,"8":3.546497344970703,"9":2.1877756118774414,"10":2.396911382675171,"11":8.012051582336426,"12":1.876514196395874,"13":2.702242374420166,"14":2.2410202026367188,"15":1.752200722694397,"16":17.633487701416016,"17":-0.6983773112297058,"18":4.02589225769043,"19":0.9004584550857544}},"cellActivationMatrix":{"rows":20,"columns":2,"weights":{"0":-0.06331539899110794,"1":0.30337122082710266,"2":8.9640531539917,"3":-1.5575958490371704,"4":4.892226219177246,"5":0.1215987578034401,"6":0.14177648723125458,"7":-0.03004385717213154,"8":-1.8888322114944458,"9":-0.13934719562530518,"10":-7.890373706817627,"11":-1.9004814624786377,"12":-2.5316152572631836,"13":0.11756829172372818,"14":1.3289200067520142,"15":-0.343973308801651,"16":-0.9986783862113953,"17":-0.003447124967351556,"18":-0.7860886454582214,"19":0.000847314833663404,"20":-0.4025781452655792,"21":-0.0021395906805992126,"22":-0.6272925138473511,"23":-2.429462432861328,"24":0.3918919563293457,"25":1.752885103225708,"26":0.6542747616767883,"27":0.26894909143447876,"28":2.8101208209991455,"29":1.2951712608337402,"30":-0.35394415259361267,"31":-0.2985760271549225,"32":-17.450376510620117,"33":5.015716552734375,"34":-1.5281455516815186,"35":-1.0978401899337769,"36":1.5465186834335327,"37":-0.9620329737663269,"38":10.325738906860352,"39":3.6167051792144775}},"cellActivationHidden":{"rows":20,"columns":20,"weights":{"0":12.495241165161133,"1":-0.604524552822113,"2":-1.6255892515182495,"3":3.300910234451294,"4":0.14951004087924957,"5":0.14605991542339325,"6":-1.2351802587509155,"7":1.2248135805130005,"8":1.5952271223068237,"9":-1.6274678707122803,"10":-9.334975242614746,"11":0.536683976650238,"12":-0.16231554746627808,"13":0.20756769180297852,"14":0.7829542756080627,"15":-2.013561248779297,"16":0.07346887141466141,"17":1.1465123891830444,"18":0.8197807669639587,"19":0.5829727649688721,"20":4.810230731964111,"21":0.30284687876701355,"22":-2.510768413543701,"23":-0.5168922543525696,"24":-1.0188384056091309,"25":18.682321548461914,"26":-11.495505332946777,"27":-0.7970187664031982,"28":-2.5504698753356934,"29":-2.9537181854248047,"30":1.3463915586471558,"31":10.103034019470215,"32":1.8459457159042358,"33":2.5700478553771973,"34":-0.7567337155342102,"35":13.552035331726074,"36":-0.645414412021637,"37":-5.738986015319824,"38":7.533332824707031,"39":3.2714030742645264,"40":17.77521514892578,"41":0.9073504209518433,"42":-1.407576084136963,"43":4.820457935333252,"44":1.7146960496902466,"45":0.08503305166959763,"46":-0.08309739828109741,"47":0.9023335576057434,"48":0.9139194488525391,"49":-3.6257729530334473,"50":1.0472781658172607,"51":0.46502935886383057,"52":-0.21681910753250122,"53":1.0009759664535522,"54":-2.8751652240753174,"55":0.20003855228424072,"56":-1.5904043912887573,"57":6.242765426635742,"58":0.5102193355560303,"59":-0.3957003057003021,"60":2.4320647716522217,"61":-0.9991468191146851,"62":-2.331031322479248,"63":0.30213186144828796,"64":0.6121584177017212,"65":1.802736759185791,"66":-1.84036386013031,"67":-0.9749565124511719,"68":0.8548105955123901,"69":0.39234840869903564,"70":1.272638201713562,"71":-2.885293483734131,"72":3.270888090133667,"73":-5.246262073516846,"74":0.6405302286148071,"75":-0.8503918647766113,"76":2.2888801097869873,"77":-0.341363787651062,"78":0.3745741546154022,"79":2.4814534187316895,"80":4.265551567077637,"81":6.029108047485352,"82":1.3001314401626587,"83":9.028822898864746,"84":-1.6319116353988647,"85":0.6619400382041931,"86":0.6635196208953857,"87":-1.361912727355957,"88":-0.47790876030921936,"89":-0.7737335562705994,"90":-0.0321325957775116,"91":0.6563868522644043,"92":-8.679902076721191,"93":-0.7369327545166016,"94":1.1390089988708496,"95":1.0792546272277832,"96":-3.595499277114868,"97":-0.08634807169437408,"98":-1.7719329595565796,"99":-0.45051977038383484,"100":2.2530577182769775,"101":0.8851689100265503,"102":0.3414055109024048,"103":4.428129196166992,"104":0.23705092072486877,"105":-3.7431752681732178,"106":0.5065189599990845,"107":-0.5042481422424316,"108":-0.5289357304573059,"109":-0.7879946827888489,"110":-1.2855274677276611,"111":-1.174845814704895,"112":-3.865908145904541,"113":-0.11950218677520752,"114":1.0708329677581787,"115":1.082451343536377,"116":2.147341251373291,"117":1.2672032117843628,"118":10.160969734191895,"119":-0.5408390760421753,"120":2.6669795513153076,"121":-4.413030624389648,"122":3.552539825439453,"123":4.426856994628906,"124":2.6117899417877197,"125":0.17826353013515472,"126":-5.650051593780518,"127":-2.726212978363037,"128":2.192558526992798,"129":-0.364968478679657,"130":2.0456976890563965,"131":-4.3868937492370605,"132":1.2710546255111694,"133":-0.878462553024292,"134":-0.7918844223022461,"135":-3.7155096530914307,"136":-1.8048750162124634,"137":2.5864408016204834,"138":2.0021839141845703,"139":-2.337106466293335,"140":3.4611456394195557,"141":-1.1128443479537964,"142":0.3488388657569885,"143":3.4834892749786377,"144":-3.446554660797119,"145":-1.515168309211731,"146":0.9157161116600037,"147":1.3093653917312622,"148":1.1116715669631958,"149":0.5312931537628174,"150":1.8358063697814941,"151":-0.536831259727478,"152":-2.142322540283203,"153":-2.0761375427246094,"154":0.6568831205368042,"155":0.6630068421363831,"156":0.10084477812051773,"157":2.213559150695801,"158":-0.12530681490898132,"159":-1.9621491432189941,"160":2.098472833633423,"161":-4.955927848815918,"162":-0.9415805339813232,"163":1.9748355150222778,"164":-2.296807289123535,"165":-0.20533254742622375,"166":-2.3725435733795166,"167":-0.4150564670562744,"168":0.7046873569488525,"169":1.7686108350753784,"170":-0.6453810334205627,"171":1.2112921476364136,"172":0.9573035836219788,"173":-1.0433125495910645,"174":0.47393181920051575,"175":-1.2211906909942627,"176":-0.5042381882667542,"177":0.1704094260931015,"178":8.12077522277832,"179":1.5457526445388794,"180":-2.515947103500366,"181":-0.719046413898468,"182":-0.7973312139511108,"183":4.702844142913818,"184":-0.43194982409477234,"185":-3.6596341133117676,"186":-0.5652386546134949,"187":-0.43247413635253906,"188":0.43078258633613586,"189":-0.6576926708221436,"190":-0.5613308548927307,"191":-0.4419541656970978,"192":3.340362310409546,"193":-0.3267589807510376,"194":-1.212000846862793,"195":-1.1920284032821655,"196":-0.5915595889091492,"197":-0.4963224530220032,"198":1.7080223560333252,"199":0.56927490234375,"200":-0.5478786826133728,"201":-0.27146750688552856,"202":-0.18022595345973969,"203":-0.9820711016654968,"204":-1.3935314416885376,"205":-1.040086269378662,"206":0.25524330139160156,"207":-0.38363122940063477,"208":-0.196043461561203,"209":-0.6938807964324951,"210":1.0634124279022217,"211":0.11239071190357208,"212":2.99009370803833,"213":0.03824133053421974,"214":-0.032030459493398666,"215":-1.0784342288970947,"216":-0.2445790320634842,"217":-0.33603501319885254,"218":0.8354407548904419,"219":0.49254998564720154,"220":5.131174087524414,"221":6.4886794090271,"222":0.40727701783180237,"223":-12.256234169006348,"224":-1.1103544235229492,"225":-0.11497970670461655,"226":2.6347806453704834,"227":3.0612566471099854,"228":3.381032705307007,"229":-2.6642868518829346,"230":0.44610491394996643,"231":0.1917845457792282,"232":-2.6668896675109863,"233":-0.3203428089618683,"234":-0.9710255265235901,"235":-0.6970551013946533,"236":-0.6767871379852295,"237":2.098106861114502,"238":-5.177671909332275,"239":0.6368549466133118,"240":0.30853861570358276,"241":0.2714361250400543,"242":-0.4806813895702362,"243":3.8746259212493896,"244":0.21222621202468872,"245":1.5586239099502563,"246":-0.9249343872070312,"247":-0.27170243859291077,"248":0.6022272706031799,"249":-0.13637596368789673,"250":-0.40476545691490173,"251":1.0124942064285278,"252":-1.2813947200775146,"253":0.25780928134918213,"254":-0.13093966245651245,"255":2.079726219177246,"256":0.6477579474449158,"257":-1.2088353633880615,"258":-1.1991771459579468,"259":-0.21385547518730164,"260":-0.10152546316385269,"261":-0.779206395149231,"262":-0.06711400300264359,"263":0.1382189840078354,"264":1.7463078498840332,"265":0.31026092171669006,"266":-0.9628710746765137,"267":-1.069216012954712,"268":0.31212547421455383,"269":-0.25994595885276794,"270":1.1692380905151367,"271":-1.067189335823059,"272":2.350202798843384,"273":-0.034010112285614014,"274":-0.20703276991844177,"275":0.2538374066352844,"276":-0.005679599940776825,"277":0.21892325580120087,"278":0.17452286183834076,"279":-0.596958339214325,"280":-12.453593254089355,"281":-6.398824214935303,"282":0.04177330806851387,"283":-17.124229431152344,"284":-2.673567056655884,"285":1.4463497400283813,"286":0.47134122252464294,"287":-0.5517498254776001,"288":-6.034006118774414,"289":2.0434882640838623,"290":-0.6780933737754822,"291":0.32339319586753845,"292":-1.0924662351608276,"293":0.25358548760414124,"294":2.188417434692383,"295":0.5579155087471008,"296":-1.8844794034957886,"297":-1.529577374458313,"298":4.23005485534668,"299":-0.938700795173645,"300":0.5492466688156128,"301":0.445556104183197,"302":-0.07322122901678085,"303":-5.191953659057617,"304":-0.4207894802093506,"305":0.45711687207221985,"306":-1.4491041898727417,"307":-0.6968239545822144,"308":-0.6581228375434875,"309":-1.175487756729126,"310":0.39049848914146423,"311":-0.9772562980651855,"312":-4.01378870010376,"313":1.2046364545822144,"314":0.6283349990844727,"315":-0.9779505729675293,"316":0.14085493981838226,"317":-0.19884300231933594,"318":-3.416252851486206,"319":-1.5169597864151,"320":-19.04521942138672,"321":-2.083042860031128,"322":0.9169144034385681,"323":0.41103050112724304,"324":-5.717651844024658,"325":9.035792350769043,"326":3.129035711288452,"327":-1.6978051662445068,"328":-0.564631462097168,"329":-2.6594126224517822,"330":-0.5118783116340637,"331":-4.299120903015137,"332":0.055575959384441376,"333":-2.219902992248535,"334":3.595991849899292,"335":-0.8413916230201721,"336":-2.415027141571045,"337":2.2192025184631348,"338":-7.343552112579346,"339":0.40047407150268555,"340":0.5365830659866333,"341":-3.115666627883911,"342":0.6384027600288391,"343":-0.5865598320960999,"344":1.3544386625289917,"345":-1.4552726745605469,"346":1.199438452720642,"347":-0.15794092416763306,"348":-0.12378083914518356,"349":0.1343422681093216,"350":-0.15925857424736023,"351":0.12527786195278168,"352":0.5508445501327515,"353":1.6640033721923828,"354":1.1755443811416626,"355":-0.25760841369628906,"356":-0.3725910186767578,"357":-1.9846104383468628,"358":-1.3965320587158203,"359":0.3946738839149475,"360":-0.9955787062644958,"361":0.07214479893445969,"362":0.060854438692331314,"363":1.1984282732009888,"364":-0.02784804254770279,"365":-1.2999917268753052,"366":-0.4026056230068207,"367":-0.30564212799072266,"368":0.20703208446502686,"369":0.01410228293389082,"370":0.29958969354629517,"371":-1.037225365638733,"372":0.050553664565086365,"373":-0.4245382249355316,"374":-0.3106881082057953,"375":-0.5893465876579285,"376":0.03552903234958649,"377":-0.214710995554924,"378":0.01458332035690546,"379":-0.052211910486221313,"380":-0.9114132523536682,"381":-0.13146540522575378,"382":0.4583192765712738,"383":-0.017651190981268883,"384":-0.06627287715673447,"385":0.5856161117553711,"386":-0.10996121913194656,"387":-0.4824081361293793,"388":-0.16600076854228973,"389":0.06444933265447617,"390":0.1014251857995987,"391":-0.6941658854484558,"392":-0.33694157004356384,"393":0.25010257959365845,"394":-0.18015806376934052,"395":-1.3290035724639893,"396":-0.1270514875650406,"397":-0.4505259394645691,"398":-0.2165108025074005,"399":0.1714920550584793}},"cellActivationBias":{"rows":20,"columns":1,"weights":{"0":0.47222116589546204,"1":1.4960521459579468,"2":-6.816906929016113,"3":0.10490518063306808,"4":9.172682762145996,"5":-0.06502555310726166,"6":-9.174576759338379,"7":-0.8316267132759094,"8":0.8171001076698303,"9":1.2972323894500732,"10":1.0726386308670044,"11":-0.4104089140892029,"12":-1.6821874380111694,"13":-1.497591257095337,"14":-1.1873719692230225,"15":-0.4275149405002594,"16":3.3793580532073975,"17":1.0762848854064941,"18":0.9537145495414734,"19":-3.1879208087921143}}}],"outputConnector":{"rows":2,"columns":20,"weights":{"0":-84.92147827148438,"1":59.44011306762695,"2":-11.061896324157715,"3":64.4932861328125,"4":-161.26441955566406,"5":18.92266273498535,"6":87.13334655761719,"7":-13.843914985656738,"8":-52.400882720947266,"9":-93.29341888427734,"10":41.061912536621094,"11":92.85562133789062,"12":72.47332763671875,"13":-66.33445739746094,"14":18.486984252929688,"15":45.646541595458984,"16":-26.236120223999023,"17":37.80335235595703,"18":-45.22694778442383,"19":-1.7095566987991333,"20":1.2977375984191895,"21":4.029892921447754,"22":-24.903461456298828,"23":160.8947296142578,"24":7.9742255210876465,"25":4.5827226638793945,"26":-25.86998176574707,"27":1.7195730209350586,"28":47.68598556518555,"29":20.094287872314453,"30":9.040616989135742,"31":-9.074081420898438,"32":2.143446922302246,"33":-7.819185733795166,"34":15.148984909057617,"35":-3.8234128952026367,"36":19.554059982299805,"37":-121.83037567138672,"38":-213.9390411376953,"39":10.658079147338867}},"output":{"rows":2,"columns":1,"weights":{"0":333.8592529296875,"1":6.329793930053711}}}