{"type":"LSTMTimeStep","options":{"inputSize":2,"hiddenLayers":[20],"outputSize":2,"decayRate":0.999,"smoothEps":1e-8,"regc":0.000001,"clipval":5},"hiddenLayers":[{"inputMatrix":{"rows":20,"columns":2,"weights":{"0":-2.176605224609375,"1":0.006446451880037785,"2":-9.333274841308594,"3":17.176822662353516,"4":7.17209529876709,"5":32.87097930908203,"6":-1.5102131366729736,"7":1.9408658742904663,"8":-1.3775378465652466,"9":6.042575836181641,"10":6.908980846405029,"11":19.371288299560547,"12":-0.3423283100128174,"13":12.63326358795166,"14":5.933393478393555,"15":-0.29593515396118164,"16":0.6784272789955139,"17":10.973525047302246,"18":10.385199546813965,"19":28.38785743713379,"20":-0.8424317836761475,"21":0.3969855308532715,"22":-1.5737175941467285,"23":2.469047784805298,"24":1.5283828973770142,"25":27.457157135009766,"26":-0.4179721772670746,"27":0.17313657701015472,"28":2.2555744647979736,"29":-0.2722831070423126,"30":3.6505260467529297,"31":-2.5528807640075684,"32":-7.007054805755615,"33":-0.7212579846382141,"34":-2.3509488105773926,"35":9.291900634765625,"36":-1.9463355541229248,"37":1.1203898191452026,"38":2.8222250938415527,"39":13.07677173614502}},"inputHidden":{"rows":20,"columns":20,"weights":{"0":-8.922745704650879,"1":0.3438863456249237,"2":1.4995068311691284,"3":-4.40963077545166,"4":-8.886573791503906,"5":-7.006727695465088,"6":6.001579284667969,"7":5.400983810424805,"8":-0.3184434473514557,"9":5.0217413902282715,"10":-0.09715195000171661,"11":2.9346041679382324,"12":-1.6201142072677612,"13":-2.6995933055877686,"14":-2.7813403606414795,"15":3.31191349029541,"16":-0.5555266737937927,"17":-1.535358190536499,"18":-9.691617965698242,"19":0.7018325924873352,"20":1.6897069215774536,"21":5.516842365264893,"22":8.936339378356934,"23":-7.2327423095703125,"24":-13.32958698272705,"25":-2.990494966506958,"26":5.721642017364502,"27":1.8753540515899658,"28":-7.869724750518799,"29":-5.284902572631836,"30":4.745485305786133,"31":-0.7932774424552917,"32":-8.548554420471191,"33":-3.4449374675750732,"34":-0.21148158609867096,"35":-16.951448440551758,"36":0.38756516575813293,"37":-1.3621746301651,"38":-3.5297837257385254,"39":-2.633105516433716,"40":3.4287049770355225,"41":-1.2801125049591064,"42":-1.9751760959625244,"43":-0.021616360172629356,"44":-1.5255602598190308,"45":-0.5336122512817383,"46":1.7093024253845215,"47":2.3282172679901123,"48":-0.6044976115226746,"49":-3.9106595516204834,"50":-2.750185489654541,"51":-1.5515668392181396,"52":-2.2128102779388428,"53":2.4658641815185547,"54":2.00844144821167,"55":5.704224586486816,"56":0.23113735020160675,"57":-2.704777240753174,"58":-3.63545560836792,"59":-1.714982032775879,"60":-6.692503929138184,"61":1.3069206476211548,"62":-3.755880117416382,"63":-9.07379150390625,"64":-9.556884765625,"65":-2.403844118118286,"66":14.547917366027832,"67":0.6749716401100159,"68":4.2891387939453125,"69":4.521594524383545,"70":-3.9258930683135986,"71":-9.767024993896484,"72":-1.9069089889526367,"73":-4.895187854766846,"74":-6.713648796081543,"75":10.629683494567871,"76":-2.311486005783081,"77":-2.717036008834839,"78":9.135244369506836,"79":0.46289968490600586,"80":-0.10572558641433716,"81":-0.471020370721817,"82":-0.45084089040756226,"83":0.7535699009895325,"84":0.2721607983112335,"85":1.148159384727478,"86":1.600918173789978,"87":3.0480425357818604,"88":-0.7216522097587585,"89":-0.43858540058135986,"90":3.648132085800171,"91":-0.8967260122299194,"92":0.821123480796814,"93":0.6293655633926392,"94":0.8360047936439514,"95":-0.4739539325237274,"96":-1.8052631616592407,"97":-0.5824597477912903,"98":-2.0484514236450195,"99":0.8158642053604126,"100":1.7222967147827148,"101":-0.6394937634468079,"102":3.663914918899536,"103":-1.1564480066299438,"104":-4.550189971923828,"105":1.3087830543518066,"106":0.9250460267066956,"107":-0.8293248414993286,"108":-1.4761663675308228,"109":0.24251344799995422,"110":0.11034087836742401,"111":-0.6183277368545532,"112":1.3828680515289307,"113":0.5700126886367798,"114":0.8304072618484497,"115":0.563476026058197,"116":2.7878036499023438,"117":-0.44423314929008484,"118":0.4606470465660095,"119":0.08259106427431107,"120":4.635987758636475,"121":0.5134778618812561,"122":-7.652812957763672,"123":-2.118605852127075,"124":-0.11469652503728867,"125":3.0352261066436768,"126":3.5406084060668945,"127":2.4882431030273438,"128":-1.697507381439209,"129":1.137447476387024,"130":2.5181996822357178,"131":0.5975196957588196,"132":3.174482583999634,"133":-1.1516382694244385,"134":-0.6717149615287781,"135":3.640934705734253,"136":-1.2880834341049194,"137":-0.1957559883594513,"138":-14.205989837646484,"139":2.1496469974517822,"140":13.401128768920898,"141":-10.522882461547852,"142":-7.797778129577637,"143":5.017075538635254,"144":12.418645858764648,"145":-9.107013702392578,"146":6.5033745765686035,"147":1.5221011638641357,"148":11.997955322265625,"149":-9.524276733398438,"150":10.31934642791748,"151":-2.0595543384552,"152":-10.026618957519531,"153":8.617687225341797,"154":5.71721887588501,"155":7.946959018707275,"156":-12.701154708862305,"157":-20.202836990356445,"158":1.2639294862747192,"159":-9.220086097717285,"160":2.156639575958252,"161":4.494946479797363,"162":0.5454947352409363,"163":0.3839963674545288,"164":0.42497581243515015,"165":0.34831827878952026,"166":0.3346861004829407,"167":-2.6672728061676025,"168":-0.34265804290771484,"169":-0.701829731464386,"170":6.078011512756348,"171":-1.1685209274291992,"172":0.20448622107505798,"173":1.6837739944458008,"174":1.3902629613876343,"175":0.31943899393081665,"176":0.07832886278629303,"177":-0.6397565007209778,"178":-5.0669965744018555,"179":0.23882010579109192,"180":3.7651374340057373,"181":-1.4470185041427612,"182":-1.2583706378936768,"183":-1.268824577331543,"184":-4.49427604675293,"185":-4.648504734039307,"186":-0.016182977706193924,"187":0.863064169883728,"188":0.8829799294471741,"189":-1.2242027521133423,"190":0.019938025623559952,"191":-1.1107721328735352,"192":-2.483020544052124,"193":1.8628568649291992,"194":3.4182817935943604,"195":0.6770918965339661,"196":2.8933322429656982,"197":-0.020710928365588188,"198":0.12445816397666931,"199":-1.7012046575546265,"200":-2.421234607696533,"201":2.5442044734954834,"202":-2.0820932388305664,"203":-1.0922276973724365,"204":1.179485559463501,"205":-0.5238101482391357,"206":0.7587935924530029,"207":0.32651177048683167,"208":2.3225483894348145,"209":1.8234103918075562,"210":3.080575466156006,"211":1.0597478151321411,"212":2.010340452194214,"213":-2.672213315963745,"214":-1.1280012130737305,"215":-1.800571322441101,"216":1.408522605895996,"217":3.482276201248169,"218":-1.0808898210525513,"219":-0.5881719589233398,"220":0.7433527112007141,"221":0.682179868221283,"222":1.9165958166122437,"223":-0.997395932674408,"224":1.4848873615264893,"225":1.219651222229004,"226":-0.6475858092308044,"227":-5.49368143081665,"228":-1.222288966178894,"229":0.3407759666442871,"230":4.647680759429932,"231":1.1397523880004883,"232":1.4796990156173706,"233":-0.32825741171836853,"234":-0.3355505168437958,"235":-0.6271490454673767,"236":0.9894440174102783,"237":1.610666275024414,"238":-6.611187934875488,"239":2.2192182540893555,"240":-4.3249382972717285,"241":-3.006127119064331,"242":-6.431118011474609,"243":-6.341121196746826,"244":0.10779999196529388,"245":0.4577845633029938,"246":4.277649402618408,"247":8.899811744689941,"248":-0.20092375576496124,"249":1.1761547327041626,"250":10.91610336303711,"251":-0.34927240014076233,"252":2.4506077766418457,"253":0.5859809517860413,"254":1.6933196783065796,"255":4.6179094314575195,"256":8.912222862243652,"257":1.287825584411621,"258":-6.683426856994629,"259":4.975977420806885,"260":-0.29596564173698425,"261":0.6709917187690735,"262":0.1517379730939865,"263":-0.942864179611206,"264":1.3624130487442017,"265":0.49321165680885315,"266":0.1971779614686966,"267":-2.2697200775146484,"268":-0.7534332871437073,"269":0.817589521408081,"270":3.0879759788513184,"271":-0.20677393674850464,"272":-0.15186510980129242,"273":-0.6966271996498108,"274":-0.8516539335250854,"275":-0.4594747722148895,"276":0.7396519184112549,"277":0.7035651206970215,"278":0.4535785913467407,"279":0.05531502142548561,"280":-1.1080690622329712,"281":1.6163361072540283,"282":-0.6098890900611877,"283":3.633530616760254,"284":-3.8130264282226562,"285":-0.33398211002349854,"286":-4.712997913360596,"287":-4.372505187988281,"288":4.324976921081543,"289":1.8116004467010498,"290":-1.9017505645751953,"291":-4.471282482147217,"292":-4.130887508392334,"293":-2.0045690536499023,"294":-2.4148526191711426,"295":0.09702985733747482,"296":7.012763500213623,"297":3.227299213409424,"298":4.210567474365234,"299":-1.7059072256088257,"300":-3.7743442058563232,"301":-1.7571518421173096,"302":3.2044475078582764,"303":-7.598933219909668,"304":0.18104000389575958,"305":0.5780994296073914,"306":0.6215242743492126,"307":4.090742111206055,"308":-1.8666224479675293,"309":3.1430389881134033,"310":0.5642477869987488,"311":1.3743754625320435,"312":-0.7446616888046265,"313":-2.3591866493225098,"314":-1.4677702188491821,"315":-2.885629415512085,"316":0.71397864818573,"317":3.956756591796875,"318":-2.850968599319458,"319":0.8608700037002563,"320":-2.027890920639038,"321":0.26503193378448486,"322":4.889576435089111,"323":-3.5702743530273438,"324":-3.361703872680664,"325":2.3167340755462646,"326":-4.020578384399414,"327":2.594679355621338,"328":1.0483744144439697,"329":-0.6263349056243896,"330":-0.6385196447372437,"331":1.2364617586135864,"332":3.209266424179077,"333":0.2958187758922577,"334":-0.2861981689929962,"335":4.122650146484375,"336":2.0699079036712646,"337":0.021354805678129196,"338":1.821235179901123,"339":2.228900909423828,"340":-0.2950305938720703,"341":0.5038608312606812,"342":-2.495133638381958,"343":-0.8813627362251282,"344":-0.331472784280777,"345":-3.537773370742798,"346":0.7533482909202576,"347":4.059092044830322,"348":2.8255746364593506,"349":1.6490914821624756,"350":7.620305061340332,"351":-0.4569306969642639,"352":-0.6238054633140564,"353":-1.0815788507461548,"354":-1.5404043197631836,"355":-1.000950574874878,"356":1.4981685876846313,"357":-0.6622477173805237,"358":-5.799738883972168,"359":-1.4179309606552124,"360":2.162961721420288,"361":-3.0078492164611816,"362":0.38787296414375305,"363":-7.194778919219971,"364":1.1117230653762817,"365":-1.0074328184127808,"366":-5.58897590637207,"367":1.8449093103408813,"368":0.07577846199274063,"369":-9.723420143127441,"370":1.169255018234253,"371":4.1581220626831055,"372":-11.154780387878418,"373":-0.7935131192207336,"374":-0.6662120223045349,"375":4.769829750061035,"376":0.3099774718284607,"377":3.209587812423706,"378":1.937673568725586,"379":-7.841454029083252,"380":-0.45733189582824707,"381":-1.3758565187454224,"382":-3.098478078842163,"383":-2.0997540950775146,"384":-2.5275566577911377,"385":1.0473629236221313,"386":2.4954097270965576,"387":7.011211395263672,"388":0.15764297544956207,"389":1.3231991529464722,"390":0.09981594979763031,"391":-0.7024586796760559,"392":0.18197870254516602,"393":-0.07327400147914886,"394":0.26892706751823425,"395":0.3351406455039978,"396":1.0578960180282593,"397":-1.3635263442993164,"398":-7.26809549331665,"399":-1.1705363988876343}},"inputBias":{"rows":20,"columns":1,"weights":{"0":10.916475296020508,"1":1.9204891920089722,"2":-25.90192413330078,"3":3.9838032722473145,"4":0.5388784408569336,"5":-1.045157551765442,"6":1.0293346643447876,"7":0.16063784062862396,"8":1.5495491027832031,"9":-21.11346435546875,"10":16.437280654907227,"11":1.85203218460083,"12":-20.33200454711914,"13":7.530755996704102,"14":6.418405532836914,"15":15.00112247467041,"16":18.085912704467773,"17":1.0786361694335938,"18":7.729694843292236,"19":-8.028064727783203}},"forgetMatrix":{"rows":20,"columns":2,"weights":{"0":-1.3525817394256592,"1":0.7295796275138855,"2":2.132812261581421,"3":0.08431869745254517,"4":4.486815452575684,"5":-10.43891716003418,"6":-3.240319013595581,"7":0.11438698321580887,"8":-11.922568321228027,"9":0.1396205723285675,"10":-0.5149919986724854,"11":-1.2690538167953491,"12":3.5839974880218506,"13":12.237105369567871,"14":-2.376314640045166,"15":0.17327764630317688,"16":0.44927453994750977,"17":3.3001582622528076,"18":-3.1482763290405273,"19":0.014079637825489044,"20":-2.089632749557495,"21":0.08263836055994034,"22":-6.788804054260254,"23":11.242086410522461,"24":0.7270190119743347,"25":-2.922945499420166,"26":3.672257900238037,"27":-0.07741972804069519,"28":9.321126937866211,"29":-3.561511278152466,"30":9.773666381835938,"31":-10.876445770263672,"32":-4.953990936279297,"33":0.11389068514108658,"34":7.458158016204834,"35":1.0097630023956299,"36":0.4511295557022095,"37":-0.10726139694452286,"38":-8.910355567932129,"39":0.01900397427380085}},"forgetHidden":{"rows":20,"columns":20,"weights":{"0":5.500030994415283,"1":-0.38595667481422424,"2":-3.5474696159362793,"3":-3.6358790397644043,"4":0.5950508117675781,"5":12.548359870910645,"6":-0.37240922451019287,"7":2.9071919918060303,"8":-5.192607879638672,"9":-3.0732581615448,"10":2.499119281768799,"11":7.179584503173828,"12":-3.2364912033081055,"13":1.2677875757217407,"14":0.900201678276062,"15":18.382774353027344,"16":-0.07773689180612564,"17":-9.814945220947266,"18":-8.382950782775879,"19":2.392225742340088,"20":2.4867753982543945,"21":2.681215763092041,"22":1.9581228494644165,"23":-3.978414297103882,"24":-17.871200561523438,"25":1.7119896411895752,"26":5.116812705993652,"27":6.329728603363037,"28":-7.815260887145996,"29":1.6854031085968018,"30":-6.480354309082031,"31":-0.14195935428142548,"32":0.75020831823349,"33":-2.5850276947021484,"34":0.14909756183624268,"35":4.23958158493042,"36":5.2595367431640625,"37":-3.308471918106079,"38":4.697948932647705,"39":4.5392279624938965,"40":-5.788631916046143,"41":-4.5285139083862305,"42":-4.919255256652832,"43":-7.803340911865234,"44":-4.250056266784668,"45":-0.5722837448120117,"46":-0.11067986488342285,"47":3.904689311981201,"48":-3.3782927989959717,"49":-0.5418859720230103,"50":3.538764715194702,"51":0.40942689776420593,"52":6.152642250061035,"53":0.6922439932823181,"54":-0.04292251169681549,"55":2.8830106258392334,"56":8.485209465026855,"57":-2.0579934120178223,"58":-2.941707134246826,"59":-3.958193302154541,"60":-8.216296195983887,"61":2.516065835952759,"62":17.394723892211914,"63":-5.166479587554932,"64":-1.5880473852157593,"65":1.624285340309143,"66":-0.31354689598083496,"67":2.8478143215179443,"68":-9.877066612243652,"69":0.17652568221092224,"70":-5.7842631340026855,"71":-1.0096724033355713,"72":-1.8501040935516357,"73":1.3500791788101196,"74":2.87044358253479,"75":-6.386727333068848,"76":-1.0173470973968506,"77":-9.679574012756348,"78":12.388336181640625,"79":1.1695479154586792,"80":1.7065069675445557,"81":3.107973098754883,"82":6.238674640655518,"83":-3.306062936782837,"84":-24.101285934448242,"85":-1.7936547994613647,"86":7.9868879318237305,"87":11.8949556350708,"88":1.0172010660171509,"89":2.25545072555542,"90":-16.478355407714844,"91":-0.28517428040504456,"92":1.2910847663879395,"93":-2.570909261703491,"94":-0.39008769392967224,"95":22.017684936523438,"96":2.3407652378082275,"97":5.493808746337891,"98":6.676023483276367,"99":2.6919989585876465,"100":0.9654479026794434,"101":-8.463985443115234,"102":-11.901601791381836,"103":3.477358341217041,"104":-2.0226430892944336,"105":3.6615793704986572,"106":-1.725045084953308,"107":1.0727463960647583,"108":-2.104245185852051,"109":-1.0909616947174072,"110":9.643336296081543,"111":-0.6317111849784851,"112":1.4396628141403198,"113":-1.4569461345672607,"114":0.8326879143714905,"115":0.6872357130050659,"116":7.462740898132324,"117":-1.5529060363769531,"118":2.7846662998199463,"119":11.377765655517578,"120":1.9610832929611206,"121":-0.8032636046409607,"122":3.210174083709717,"123":-2.838125705718994,"124":-10.879520416259766,"125":-1.4710845947265625,"126":1.5984675884246826,"127":4.187358379364014,"128":1.1613765954971313,"129":3.5988128185272217,"130":-6.7282938957214355,"131":-0.6132910847663879,"132":2.8496615886688232,"133":0.1817452311515808,"134":0.724088728427887,"135":1.659527063369751,"136":3.149353504180908,"137":-0.9903956651687622,"138":3.4778237342834473,"139":3.2441132068634033,"140":-12.496502876281738,"141":3.4918406009674072,"142":5.475183486938477,"143":2.8972976207733154,"144":-3.169130563735962,"145":-16.58824348449707,"146":-3.1763265132904053,"147":15.202896118164062,"148":16.006061553955078,"149":-1.8135910034179688,"150":-6.0264081954956055,"151":-4.8375468254089355,"152":-4.770022392272949,"153":2.4268689155578613,"154":0.7355509996414185,"155":-19.050500869750977,"156":-12.61231803894043,"157":2.9017341136932373,"158":13.062576293945312,"159":-2.641906261444092,"160":12.971739768981934,"161":-4.991908550262451,"162":-20.765560150146484,"163":0.6398736238479614,"164":9.298303604125977,"165":3.057621479034424,"166":2.162949800491333,"167":12.289277076721191,"168":-8.711618423461914,"169":-1.624573826789856,"170":19.003629684448242,"171":-5.286994934082031,"172":2.85335636138916,"173":-0.1294606626033783,"174":-4.295322895050049,"175":7.135116100311279,"176":7.043697834014893,"177":-2.813878059387207,"178":-5.49737024307251,"179":3.887173652648926,"180":7.062782287597656,"181":3.040987968444824,"182":-5.423785209655762,"183":-6.2294464111328125,"184":-5.770900249481201,"185":-6.097560405731201,"186":5.436285972595215,"187":10.637869834899902,"188":-2.0246050357818604,"189":4.553142547607422,"190":-0.2725348472595215,"191":5.357192516326904,"192":-7.4837846755981445,"193":-5.231976509094238,"194":-4.636569976806641,"195":-4.573193073272705,"196":-3.0845348834991455,"197":1.2172114849090576,"198":-0.7135820388793945,"199":-0.717446506023407,"200":5.007659912109375,"201":6.41780424118042,"202":3.572614908218384,"203":-7.746757984161377,"204":-6.361728191375732,"205":-7.184041976928711,"206":-1.4045268297195435,"207":14.950788497924805,"208":3.8341078758239746,"209":5.823017597198486,"210":-2.6020429134368896,"211":-0.6715483069419861,"212":-2.0852906703948975,"213":-1.3450404405593872,"214":0.5566354990005493,"215":19.850154876708984,"216":16.750835418701172,"217":5.7773542404174805,"218":9.144139289855957,"219":1.0263988971710205,"220":5.99720573425293,"221":-4.082634925842285,"222":-6.30495023727417,"223":-6.056213855743408,"224":-1.9818665981292725,"225":-6.366171360015869,"226":11.920526504516602,"227":2.9499459266662598,"228":-6.145638465881348,"229":3.7204415798187256,"230":5.951869487762451,"231":7.911120891571045,"232":-3.303867816925049,"233":-3.745655059814453,"234":-0.7703394889831543,"235":5.493993759155273,"236":2.3273255825042725,"237":-4.1701340675354,"238":3.3290176391601562,"239":12.38223934173584,"240":4.446152210235596,"241":0.5790834426879883,"242":2.4991021156311035,"243":-1.1407828330993652,"244":1.7745662927627563,"245":0.2840481698513031,"246":0.11373117566108704,"247":-0.3711535334587097,"248":0.8676664233207703,"249":-0.8081093430519104,"250":4.961331844329834,"251":0.13262471556663513,"252":0.09335918724536896,"253":0.2609778344631195,"254":-0.15022484958171844,"255":-4.929105281829834,"256":-0.3972054719924927,"257":0.42061224579811096,"258":9.32006549835205,"259":-3.217442750930786,"260":-7.784013748168945,"261":-3.7864255905151367,"262":-14.290358543395996,"263":1.9089676141738892,"264":4.424206733703613,"265":2.3502016067504883,"266":2.4647886753082275,"267":-9.1565580368042,"268":-5.6265788078308105,"269":5.113853931427002,"270":2.462885618209839,"271":6.773507595062256,"272":-11.893498420715332,"273":-0.2689896523952484,"274":1.968849539756775,"275":1.8604754209518433,"276":-15.10949993133545,"277":-9.983527183532715,"278":1.0741233825683594,"279":-8.48520565032959,"280":8.903736114501953,"281":-5.222555160522461,"282":-8.24596881866455,"283":-6.725268363952637,"284":-1.4406099319458008,"285":-2.0225257873535156,"286":-0.040867891162633896,"287":6.194389820098877,"288":-4.78122091293335,"289":-6.5088396072387695,"290":-2.527921438217163,"291":-2.4872326850891113,"292":-13.259077072143555,"293":-0.03651539608836174,"294":4.29221773147583,"295":12.025413513183594,"296":-0.4294297397136688,"297":-8.575035095214844,"298":-0.5065885782241821,"299":-14.565291404724121,"300":2.859347105026245,"301":-1.294723629951477,"302":-1.9334232807159424,"303":-4.414389133453369,"304":-3.0067503452301025,"305":-2.454512596130371,"306":3.50266170501709,"307":12.193145751953125,"308":3.805610179901123,"309":-1.4664658308029175,"310":-4.4210429191589355,"311":0.6129263043403625,"312":-7.797865867614746,"313":0.1578691005706787,"314":-0.1701137274503708,"315":0.015731429681181908,"316":-6.054091453552246,"317":-1.4293314218521118,"318":0.16037118434906006,"319":-0.03760604187846184,"320":-4.034480094909668,"321":5.622045993804932,"322":10.318581581115723,"323":-1.2364566326141357,"324":-0.09081834554672241,"325":0.7333425283432007,"326":6.711460590362549,"327":-2.178715467453003,"328":1.695997953414917,"329":8.727459907531738,"330":-7.041543006896973,"331":-1.3497346639633179,"332":2.4787416458129883,"333":0.5096364617347717,"334":1.6807024478912354,"335":-3.4778072834014893,"336":6.2184906005859375,"337":5.501026630401611,"338":-0.1294538527727127,"339":2.3869330883026123,"340":-1.6313937902450562,"341":-2.103381872177124,"342":1.4705289602279663,"343":-1.9276149272918701,"344":-3.2400929927825928,"345":3.933460235595703,"346":0.12966684997081757,"347":0.5297634601593018,"348":-0.4402135908603668,"349":-0.4092245101928711,"350":2.010530948638916,"351":-0.8836767077445984,"352":1.8292920589447021,"353":0.9873990416526794,"354":0.6610639095306396,"355":0.34614190459251404,"356":2.2302052974700928,"357":-0.1823474019765854,"358":-3.7828919887542725,"359":1.934983253479004,"360":10.98136043548584,"361":-9.518607139587402,"362":-13.88870906829834,"363":4.1823930740356445,"364":4.308835506439209,"365":1.7644885778427124,"366":10.243067741394043,"367":0.39359012246131897,"368":5.775970935821533,"369":0.7783225178718567,"370":7.776322364807129,"371":-0.24492311477661133,"372":-5.599804878234863,"373":-5.287320613861084,"374":-2.4324846267700195,"375":5.161812782287598,"376":1.3192005157470703,"377":-13.008841514587402,"378":0.6298390626907349,"379":-6.033827781677246,"380":5.707198143005371,"381":3.1390151977539062,"382":-10.804747581481934,"383":-3.9163146018981934,"384":-0.1816498041152954,"385":5.785933971405029,"386":12.362310409545898,"387":10.105216026306152,"388":-6.542541980743408,"389":3.8400585651397705,"390":2.414910316467285,"391":4.333697319030762,"392":5.875347137451172,"393":-5.375853538513184,"394":-2.730112314224243,"395":20.95707130432129,"396":-1.774242877960205,"397":-1.2502319812774658,"398":-1.7689883708953857,"399":6.026063442230225}},"forgetBias":{"rows":20,"columns":1,"weights":{"0":0,"1":0,"2":0,"3":0,"4":0,"5":0,"6":0,"7":0,"8":0,"9":0,"10":0,"11":0,"12":0,"13":0,"14":0,"15":0,"16":0,"17":0,"18":0,"19":0}},"outputMatrix":{"rows":20,"columns":2,"weights":{"0":-2.5337562561035156,"1":3.781229257583618,"2":0.7890748381614685,"3":2.480541944503784,"4":5.6953630447387695,"5":-0.1476099044084549,"6":2.6727454662323,"7":24.867738723754883,"8":-3.4018168449401855,"9":9.391400337219238,"10":6.413873672485352,"11":16.91783332824707,"12":0.3530857563018799,"13":-0.20575565099716187,"14":1.3483047485351562,"15":0.09455806016921997,"16":-7.2589111328125,"17":7.976600646972656,"18":2.0210556983947754,"19":9.459939002990723,"20":26.479379653930664,"21":13.9676513671875,"22":-1.616003155708313,"23":0.45772433280944824,"24":-0.9771717190742493,"25":0.4535696506500244,"26":0.12464965879917145,"27":7.989774227142334,"28":-0.3794851005077362,"29":1.8536888360977173,"30":-6.292611598968506,"31":11.759481430053711,"32":0.8887766599655151,"33":16.398479461669922,"34":-4.261209487915039,"35":0.026322929188609123,"36":0.13268201053142548,"37":0.17885015904903412,"38":6.979949951171875,"39":27.17171287536621}},"outputHidden":{"rows":20,"columns":20,"weights":{"0":6.051126003265381,"1":0.8271858096122742,"2":0.2894337475299835,"3":-5.1949005126953125,"4":0.5665145516395569,"5":1.4954519271850586,"6":0.5183858871459961,"7":1.6520500183105469,"8":0.13960708677768707,"9":-1.300817608833313,"10":6.582355976104736,"11":-0.5237971544265747,"12":0.9839891195297241,"13":0.8339435458183289,"14":-0.014716105535626411,"15":-3.2390832901000977,"16":-0.06203637272119522,"17":-0.11784134805202484,"18":4.653050899505615,"19":6.372940540313721,"20":12.578950881958008,"21":-18.85387420654297,"22":-3.5193357467651367,"23":8.52810287475586,"24":-1.417901635169983,"25":-1.6321913003921509,"26":5.322649002075195,"27":4.144905090332031,"28":0.6721878051757812,"29":0.9256173968315125,"30":2.7334444522857666,"31":0.02964504435658455,"32":-0.41491666436195374,"33":2.015772819519043,"34":-0.740616500377655,"35":-2.303013324737549,"36":-0.47294363379478455,"37":3.9180409908294678,"38":-5.641956329345703,"39":3.1884500980377197,"40":4.421082973480225,"41":-2.5466930866241455,"42":-1.6066954135894775,"43":7.844224452972412,"44":-6.973753452301025,"45":-1.0808026790618896,"46":2.4205281734466553,"47":-4.557855129241943,"48":2.144090414047241,"49":-3.9602880477905273,"50":6.848022937774658,"51":3.7920310497283936,"52":-1.0020684003829956,"53":7.639220714569092,"54":3.3162076473236084,"55":36.0833625793457,"56":3.6655428409576416,"57":-2.0573225021362305,"58":-13.333084106445312,"59":-1.377779483795166,"60":-0.27101415395736694,"61":-1.1588059663772583,"62":2.265300989151001,"63":-2.9683451652526855,"64":-7.420199394226074,"65":1.7809085845947266,"66":-0.2016771286725998,"67":6.513073444366455,"68":-0.8113682866096497,"69":-0.13194109499454498,"70":-2.0689749717712402,"71":-0.5828145146369934,"72":1.1633110046386719,"73":0.015312808565795422,"74":0.4596063792705536,"75":-0.26242920756340027,"76":2.887718677520752,"77":-0.24203155934810638,"78":2.5613558292388916,"79":1.0979138612747192,"80":-2.5474328994750977,"81":2.2916862964630127,"82":14.264846801757812,"83":9.152580261230469,"84":5.58195686340332,"85":0.6930880546569824,"86":-1.1776396036148071,"87":-0.7389393448829651,"88":1.6094502210617065,"89":-1.7500635385513306,"90":-2.933631658554077,"91":-1.9907753467559814,"92":0.5906186699867249,"93":1.5477023124694824,"94":1.8647459745407104,"95":-1.8877389430999756,"96":-4.924761772155762,"97":0.42887449264526367,"98":4.833855152130127,"99":-0.610086977481842,"100":1.9877500534057617,"101":-0.9446524381637573,"102":7.079538822174072,"103":-0.7058737874031067,"104":-4.4746317863464355,"105":-0.4472278952598572,"106":1.3459500074386597,"107":2.546872138977051,"108":0.82669597864151,"109":-0.028728608042001724,"110":0.3265535831451416,"111":-1.1896378993988037,"112":2.001504898071289,"113":1.3636537790298462,"114":1.601460337638855,"115":1.2415437698364258,"116":2.1594483852386475,"117":-1.4179465770721436,"118":-0.9509106874465942,"119":1.843410611152649,"120":3.439983606338501,"121":-0.19942547380924225,"122":0.25352126359939575,"123":-1.4080759286880493,"124":1.0666742324829102,"125":2.464324474334717,"126":4.517689228057861,"127":-1.953992486000061,"128":-4.773414611816406,"129":-1.1495531797409058,"130":4.034812927246094,"131":3.1581246852874756,"132":2.271637439727783,"133":0.18403126299381256,"134":-0.32132968306541443,"135":-3.5130808353424072,"136":8.312255859375,"137":3.9816207885742188,"138":-3.8047168254852295,"139":0.8688485026359558,"140":2.3790769577026367,"141":-2.026296854019165,"142":-2.124309539794922,"143":2.4889588356018066,"144":2.2844531536102295,"145":0.9546083211898804,"146":2.2587661743164062,"147":-0.10782431811094284,"148":4.885281562805176,"149":-0.38278400897979736,"150":3.954219341278076,"151":-1.4648759365081787,"152":-0.4339399039745331,"153":4.294757843017578,"154":1.9503047466278076,"155":0.40763577818870544,"156":-3.800999879837036,"157":1.7391657829284668,"158":3.6251380443573,"159":-0.6377595067024231,"160":5.023838996887207,"161":4.1479363441467285,"162":-2.540597915649414,"163":-1.2845911979675293,"164":-0.21315978467464447,"165":-2.1107656955718994,"166":0.7439309358596802,"167":0.800564706325531,"168":-0.874738872051239,"169":0.6148710250854492,"170":2.7752511501312256,"171":-0.31247854232788086,"172":-4.441722869873047,"173":-2.263192653656006,"174":1.0116016864776611,"175":-1.0227408409118652,"176":1.2424603700637817,"177":-2.8611888885498047,"178":-0.3324149250984192,"179":-1.0196216106414795,"180":2.8494110107421875,"181":0.0601564422249794,"182":-0.0660080835223198,"183":-1.3466458320617676,"184":-2.2830698490142822,"185":0.479551762342453,"186":0.6180449724197388,"187":-0.0731724202632904,"188":0.4106786847114563,"189":-3.656240224838257,"190":0.27904194593429565,"191":-0.3112659156322479,"192":0.7256990671157837,"193":-0.06180509179830551,"194":0.42830780148506165,"195":0.07711485773324966,"196":0.35050398111343384,"197":0.29782262444496155,"198":0.3048609495162964,"199":-0.08977042138576508,"200":-0.2198958694934845,"201":3.4742703437805176,"202":-4.487659931182861,"203":14.722600936889648,"204":-1.6050119400024414,"205":-9.066216468811035,"206":1.8446059226989746,"207":-11.793734550476074,"208":5.311219692230225,"209":1.2886143922805786,"210":-4.913703918457031,"211":3.3513426780700684,"212":-7.663702011108398,"213":-1.8073920011520386,"214":-0.5297468304634094,"215":0.3389783799648285,"216":-3.620532989501953,"217":-8.781939506530762,"218":7.124505043029785,"219":-7.6454668045043945,"220":0.6715534925460815,"221":2.5254316329956055,"222":-3.824186086654663,"223":1.6018929481506348,"224":0.620124876499176,"225":-1.6614421606063843,"226":4.810805797576904,"227":1.1362420320510864,"228":-0.7516810297966003,"229":3.8481764793395996,"230":2.3803796768188477,"231":0.12329819053411484,"232":-0.34837380051612854,"233":-1.4928311109542847,"234":-1.0342962741851807,"235":-2.2048892974853516,"236":2.342758893966675,"237":3.8346896171569824,"238":-12.498576164245605,"239":1.3158766031265259,"240":1.504775881767273,"241":4.662162780761719,"242":-2.6247737407684326,"243":4.486884117126465,"244":1.7530537843704224,"245":1.083838939666748,"246":4.4901227951049805,"247":0.04645903781056404,"248":-0.8386087417602539,"249":1.448330044746399,"250":0.9239442944526672,"251":2.4771316051483154,"252":1.4020558595657349,"253":-2.2234272956848145,"254":-2.5544509887695312,"255":-2.246533155441284,"256":3.2387430667877197,"257":-0.7085245847702026,"258":-3.89016056060791,"259":-1.354407787322998,"260":0.8050747513771057,"261":5.63513708114624,"262":0.8107551336288452,"263":0.8815489411354065,"264":0.6193959712982178,"265":0.6679670810699463,"266":1.9708268642425537,"267":0.3939570188522339,"268":-0.9515455961227417,"269":-0.5202571749687195,"270":7.492307662963867,"271":-0.7834880948066711,"272":0.5428824424743652,"273":0.4291270077228546,"274":0.5904505848884583,"275":1.9631068706512451,"276":-0.2534482181072235,"277":-0.8375686407089233,"278":-7.468910217285156,"279":1.2139134407043457,"280":0.9384546875953674,"281":-7.024409294128418,"282":1.7639886140823364,"283":0.9295180439949036,"284":-2.8728513717651367,"285":-0.5711720585823059,"286":4.69220495223999,"287":-4.554623603820801,"288":-1.1972367763519287,"289":-3.299609422683716,"290":-5.451696872711182,"291":-2.981964588165283,"292":-2.126551389694214,"293":2.254077911376953,"294":5.629086971282959,"295":10.10890007019043,"296":-6.7789225578308105,"297":-2.4355807304382324,"298":-5.597970962524414,"299":0.5960915684700012,"300":2.3177945613861084,"301":-0.07999427616596222,"302":-1.2070363759994507,"303":-3.1249160766601562,"304":-2.8148269653320312,"305":-1.4141207933425903,"306":1.1659735441207886,"307":7.301963806152344,"308":2.347795009613037,"309":-3.5328474044799805,"310":-1.098167061805725,"311":-1.0140810012817383,"312":-0.7285227179527283,"313":0.8946844935417175,"314":-0.26726508140563965,"315":0.9371579885482788,"316":-2.968165636062622,"317":-0.34863871335983276,"318":-9.341381072998047,"319":-1.2720376253128052,"320":-0.6033090353012085,"321":1.8348101377487183,"322":-2.972726583480835,"323":-1.0966864824295044,"324":-2.8124141693115234,"325":3.974982261657715,"326":4.187808036804199,"327":4.61171817779541,"328":3.4431188106536865,"329":-0.01651434786617756,"330":-0.29936519265174866,"331":0.4375206232070923,"332":-2.652088165283203,"333":-0.43322113156318665,"334":-0.599727213382721,"335":-8.462165832519531,"336":1.5367320775985718,"337":-2.206660270690918,"338":-5.5273308753967285,"339":-1.6777310371398926,"340":-4.671432971954346,"341":1.0612547397613525,"342":2.324502944946289,"343":-6.78379487991333,"344":-7.798070430755615,"345":-1.700256586074829,"346":4.124134540557861,"347":7.929962158203125,"348":-3.5142669677734375,"349":2.0006086826324463,"350":-5.222375392913818,"351":1.2206153869628906,"352":-0.8472797274589539,"353":-2.073519229888916,"354":-1.2904014587402344,"355":1.3357106447219849,"356":-1.0986682176589966,"357":-4.342380523681641,"358":0.4336238503456116,"359":0.9067376255989075,"360":-9.466439247131348,"361":7.468574047088623,"362":15.357132911682129,"363":-13.909967422485352,"364":-27.837753295898438,"365":0.5997317433357239,"366":-0.5700293183326721,"367":3.3540995121002197,"368":-2.212688446044922,"369":4.868260383605957,"370":-11.320592880249023,"371":0.2629947364330292,"372":3.140242576599121,"373":-8.199419021606445,"374":-1.4129468202590942,"375":6.110020637512207,"376":9.520130157470703,"377":1.1022047996520996,"378":-3.8633615970611572,"379":11.18249797821045,"380":1.5323936939239502,"381":-2.057220458984375,"382":0.2885318398475647,"383":1.2686131000518799,"384":-2.1210670471191406,"385":0.9233556389808655,"386":0.8406882882118225,"387":2.745690107345581,"388":-0.20429301261901855,"389":-2.796818733215332,"390":2.0597965717315674,"391":-2.061107635498047,"392":-0.14572453498840332,"393":2.294325590133667,"394":2.162228584289551,"395":3.825244903564453,"396":-1.0577759742736816,"397":-1.2744853496551514,"398":-2.7597241401672363,"399":-0.3642299473285675}},"outputBias":{"rows":20,"columns":1,"weights":{"0":6.938704490661621,"1":3.8165295124053955,"2":8.725378036499023,"3":1.651240348815918,"4":1.6557105779647827,"5":-0.7791946530342102,"6":17.545068740844727,"7":-0.17931728065013885,"8":2.6069765090942383,"9":-1.4209246635437012,"10":-4.0039191246032715,"11":9.101451873779297,"12":6.786853790283203,"13":1.6713606119155884,"14":5.681421756744385,"15":1.865087628364563,"16":-2.4786429405212402,"17":8.122132301330566,"18":8.783079147338867,"19":-20.68217658996582}},"cellActivationMatrix":{"rows":20,"columns":2,"weights":{"0":1.5626877546310425,"1":11.312435150146484,"2":-0.619342565536499,"3":-0.8127212524414062,"4":-0.14298875629901886,"5":-0.06023434177041054,"6":-1.551069974899292,"7":-0.055152133107185364,"8":-2.967075824737549,"9":4.743844985961914,"10":3.625699281692505,"11":-0.07054603844881058,"12":3.8195035457611084,"13":-0.7912417650222778,"14":9.849458694458008,"15":-0.057182591408491135,"16":-0.9759677052497864,"17":0.01688944175839424,"18":-8.928927421569824,"19":-5.7928266525268555,"20":1.8868718147277832,"21":5.258694648742676,"22":0.15412870049476624,"23":0.5068793296813965,"24":-0.8220621347427368,"25":-0.07629445195198059,"26":-0.5268023014068604,"27":1.7548214197158813,"28":-0.0857546478509903,"29":3.74941086769104,"30":0.355715274810791,"31":5.7119550704956055,"32":-2.4701626300811768,"33":1.428340196609497,"34":0.06436077505350113,"35":-1.7425193786621094,"36":-1.3525974750518799,"37":-5.188819408416748,"38":1.1595330238342285,"39":-0.022814786061644554}},"cellActivationHidden":{"rows":20,"columns":20,"weights":{"0":0.2138005793094635,"1":-0.06992267072200775,"2":-0.20801803469657898,"3":-1.4128248691558838,"4":-1.7694456577301025,"5":0.06801791489124298,"6":-0.41924938559532166,"7":-0.05715131759643555,"8":-0.6017756462097168,"9":0.31628596782684326,"10":-2.792675495147705,"11":0.080722875893116,"12":-0.26462748646736145,"13":-0.7085613012313843,"14":-0.5214669108390808,"15":2.058946132659912,"16":0.5260846018791199,"17":-0.04973282665014267,"18":-1.4780110120773315,"19":0.8725388646125793,"20":1.3213369846343994,"21":0.07814711332321167,"22":-0.5849481821060181,"23":1.0312092304229736,"24":0.21641458570957184,"25":-0.5028555393218994,"26":-0.8157373666763306,"27":1.2837514877319336,"28":-0.22862616181373596,"29":-0.6461158990859985,"30":-1.3157814741134644,"31":0.47883495688438416,"32":-0.6435496211051941,"33":-0.27213403582572937,"34":-0.3457385003566742,"35":-0.03333011642098427,"36":-1.4163731336593628,"37":-0.23435355722904205,"38":2.804299831390381,"39":-0.7146992683410645,"40":2.3416311740875244,"41":-2.596191644668579,"42":0.6248953342437744,"43":6.87013578414917,"44":6.785036087036133,"45":6.017142295837402,"46":-2.615312099456787,"47":-8.397273063659668,"48":0.17280477285385132,"49":-6.197249889373779,"50":-0.9189070463180542,"51":-1.4703806638717651,"52":0.35719946026802063,"53":3.500415086746216,"54":4.253263473510742,"55":-0.9345320463180542,"56":-7.158805847167969,"57":-1.1714353561401367,"58":-5.120154857635498,"59":3.2509145736694336,"60":14.430440902709961,"61":-3.425008773803711,"62":-7.675705432891846,"63":1.351372480392456,"64":-4.868048667907715,"65":0.3068036437034607,"66":6.150613784790039,"67":-0.2480429708957672,"68":-4.087423324584961,"69":0.0018317904323339462,"70":1.4743562936782837,"71":1.0742359161376953,"72":2.25142502784729,"73":-0.7211542129516602,"74":-0.1310674399137497,"75":4.115772724151611,"76":-4.1388421058654785,"77":0.9699264168739319,"78":6.065430164337158,"79":2.6852834224700928,"80":-2.3702902793884277,"81":2.881822109222412,"82":-0.8232329487800598,"83":-2.7762205600738525,"84":1.0195682048797607,"85":-0.1186574250459671,"86":0.7265629172325134,"87":2.169276475906372,"88":-0.9122796654701233,"89":3.6629083156585693,"90":-1.9289759397506714,"91":1.6753664016723633,"92":0.3913756310939789,"93":-3.189863681793213,"94":-0.9789481163024902,"95":-13.730018615722656,"96":5.131481647491455,"97":4.64821720123291,"98":2.176727294921875,"99":-0.032109733670949936,"100":2.190741539001465,"101":-2.9247686862945557,"102":-2.7987477779388428,"103":4.913724899291992,"104":6.915317535400391,"105":-2.4006686210632324,"106":2.2191879749298096,"107":-2.72160267829895,"108":-2.1308770179748535,"109":-5.3812360763549805,"110":0.9774372577667236,"111":0.9185248017311096,"112":1.7079609632492065,"113":2.1696605682373047,"114":1.4035730361938477,"115":-4.991530895233154,"116":-7.150890827178955,"117":-1.4603004455566406,"118":-8.617837905883789,"119":0.586010754108429,"120":-1.1177387237548828,"121":1.7753169536590576,"122":6.100246906280518,"123":-4.446139812469482,"124":-2.0352425575256348,"125":-1.9077571630477905,"126":1.8619258403778076,"127":1.6508153676986694,"128":1.1058436632156372,"129":-1.6155025959014893,"130":-2.7662506103515625,"131":-0.06346782296895981,"132":-0.6924301981925964,"133":-2.41888689994812,"134":-1.8689392805099487,"135":-0.9766312837600708,"136":2.5301640033721924,"137":1.7530534267425537,"138":-1.1849638223648071,"139":0.5690552592277527,"140":-0.43956223130226135,"141":0.016277078539133072,"142":12.599698066711426,"143":-3.3822128772735596,"144":-6.266959190368652,"145":-0.9044433832168579,"146":-18.60942268371582,"147":-5.4574055671691895,"148":5.330616474151611,"149":-2.1817688941955566,"150":-0.6008540987968445,"151":4.584690570831299,"152":-3.039308786392212,"153":1.610473394393921,"154":0.6460573077201843,"155":-29.851350784301758,"156":2.9910202026367188,"157":-1.715031385421753,"158":-13.999872207641602,"159":-4.620433807373047,"160":-3.415192127227783,"161":4.311295032501221,"162":1.1700761318206787,"163":-6.051100254058838,"164":-5.396295547485352,"165":0.01102370023727417,"166":-2.5697648525238037,"167":3.398768186569214,"168":-2.2006494998931885,"169":-0.6464574933052063,"170":-3.4730865955352783,"171":1.8880683183670044,"172":-6.003579139709473,"173":-0.3180730938911438,"174":-2.212315320968628,"175":4.821479320526123,"176":1.0021271705627441,"177":1.1829420328140259,"178":-0.44784000515937805,"179":-3.747081756591797,"180":-0.43972450494766235,"181":0.675999104976654,"182":0.7070173025131226,"183":0.3072018027305603,"184":0.6383471488952637,"185":1.2416061162948608,"186":0.04738869518041611,"187":-1.2708899974822998,"188":-0.34408265352249146,"189":-1.7793916463851929,"190":4.667552947998047,"191":0.8449367880821228,"192":4.793994903564453,"193":0.02037542313337326,"194":-5.64879035949707,"195":-0.367983341217041,"196":-1.5369367599487305,"197":0.12236218899488449,"198":-0.026043932884931564,"199":1.3619801998138428,"200":4.206522464752197,"201":0.8712919354438782,"202":0.4326358735561371,"203":-1.3014565706253052,"204":-0.22772416472434998,"205":-0.5198528170585632,"206":-0.5778388977050781,"207":1.2611521482467651,"208":0.8889524936676025,"209":-0.016336793079972267,"210":-0.017140354961156845,"211":0.4549376964569092,"212":-0.949934184551239,"213":-0.5687471032142639,"214":-0.8604820966720581,"215":2.681933879852295,"216":3.91267728805542,"217":-0.9671540260314941,"218":-2.942979574203491,"219":-2.1668784618377686,"220":-3.9015676975250244,"221":-0.5943857431411743,"222":0.1490883231163025,"223":-1.1619402170181274,"224":-0.7121932506561279,"225":-1.3456920385360718,"226":1.2420486211776733,"227":1.4788542985916138,"228":1.856745719909668,"229":-0.4551137685775757,"230":-4.189850330352783,"231":-1.3129059076309204,"232":-1.174597144126892,"233":0.3626321256160736,"234":1.2500879764556885,"235":1.5475713014602661,"236":-0.3099076747894287,"237":-2.8725717067718506,"238":2.947164297103882,"239":-0.5441460609436035,"240":5.448638916015625,"241":-5.628026008605957,"242":3.9643075466156006,"243":8.24563980102539,"244":12.578845024108887,"245":0.9649754762649536,"246":2.0021276473999023,"247":-10.560789108276367,"248":0.38331106305122375,"249":-6.017792224884033,"250":3.6643433570861816,"251":-3.5625295639038086,"252":2.295095682144165,"253":5.008709907531738,"254":3.8361358642578125,"255":-7.900171279907227,"256":-8.261584281921387,"257":-1.4870797395706177,"258":-4.600220203399658,"259":-1.0562952756881714,"260":7.296456813812256,"261":3.156378746032715,"262":-0.7596924901008606,"263":5.147350788116455,"264":0.6142991185188293,"265":1.3962385654449463,"266":2.2759037017822266,"267":-1.03311288356781,"268":-3.703558921813965,"269":0.14978408813476562,"270":-0.17948217689990997,"271":0.38577815890312195,"272":4.785984516143799,"273":0.4374832212924957,"274":-0.1554502248764038,"275":0.7817693948745728,"276":0.8256794214248657,"277":-0.18612146377563477,"278":1.4919075965881348,"279":0.865233838558197,"280":-3.3883652687072754,"281":-1.2352122068405151,"282":-0.6050936579704285,"283":3.2462849617004395,"284":0.08004795014858246,"285":-0.02541663870215416,"286":0.9740414023399353,"287":0.053294070065021515,"288":-0.7148479223251343,"289":-0.6261410713195801,"290":2.1428942680358887,"291":-0.36924389004707336,"292":2.4736266136169434,"293":-0.22929315268993378,"294":0.14624734222888947,"295":1.0538885593414307,"296":0.1906808763742447,"297":-1.011089563369751,"298":-5.575710296630859,"299":1.1355940103530884,"300":0.4419283866882324,"301":-1.4458074569702148,"302":-4.1282639503479,"303":-0.4036395847797394,"304":-1.0486924648284912,"305":1.565828561782837,"306":0.7106659412384033,"307":-1.0900733470916748,"308":-1.054534912109375,"309":0.37260568141937256,"310":3.000530958175659,"311":0.022369984537363052,"312":1.0209529399871826,"313":-0.1315544992685318,"314":0.3245736062526703,"315":-1.0570465326309204,"316":1.6732248067855835,"317":-0.30288466811180115,"318":-2.5593783855438232,"319":0.186213880777359,"320":-1.5693503618240356,"321":0.38632336258888245,"322":6.428898334503174,"323":2.505455732345581,"324":-1.1753454208374023,"325":-1.611364722251892,"326":0.2633781433105469,"327":2.467184066772461,"328":2.037001132965088,"329":-1.0085463523864746,"330":-1.270005226135254,"331":-1.3978745937347412,"332":-0.868320882320404,"333":2.288175106048584,"334":1.861762285232544,"335":-1.9299196004867554,"336":-2.472965717315674,"337":-1.215532660484314,"338":0.11776517331600189,"339":-4.261815547943115,"340":-6.324375629425049,"341":-2.19075345993042,"342":0.7188428640365601,"343":0.6790663003921509,"344":-0.8192291259765625,"345":-0.9907381534576416,"346":1.7423794269561768,"347":1.4285629987716675,"348":1.0846891403198242,"349":0.1853417009115219,"350":-2.678575277328491,"351":-0.0625152662396431,"352":-1.4850940704345703,"353":-0.29887354373931885,"354":0.4718168079853058,"355":0.24048195779323578,"356":-1.929818034172058,"357":-2.815873146057129,"358":1.9231561422348022,"359":-0.5983549952507019,"360":-18.12761116027832,"361":0.3412281274795532,"362":1.4010820388793945,"363":-1.0365381240844727,"364":0.3713074326515198,"365":-0.42463383078575134,"366":-0.11168331652879715,"367":2.4798638820648193,"368":0.27723294496536255,"369":-0.32003307342529297,"370":-1.353026032447815,"371":0.6016283631324768,"372":-1.443764328956604,"373":-0.7545066475868225,"374":-0.5354467630386353,"375":1.149182677268982,"376":-0.05237143859267235,"377":-0.020755281671881676,"378":-9.104636192321777,"379":-1.3547072410583496,"380":2.48844575881958,"381":-4.160080909729004,"382":1.0485460758209229,"383":6.040682315826416,"384":7.253100872039795,"385":1.3902173042297363,"386":1.707999348640442,"387":-3.2909164428710938,"388":0.8685552477836609,"389":0.664021372795105,"390":-1.6724103689193726,"391":-1.3993884325027466,"392":5.45955228805542,"393":2.0698401927948,"394":0.895225465297699,"395":-8.463726997375488,"396":-4.402817726135254,"397":-1.416688323020935,"398":0.5020723342895508,"399":0.4686873257160187}},"cellActivationBias":{"rows":20,"columns":1,"weights":{"0":0.009572387672960758,"1":-2.529468059539795,"2":-3.721118688583374,"3":3.8889527320861816,"4":-4.919097423553467,"5":-9.06821060180664,"6":9.839883804321289,"7":0.5317673683166504,"8":4.635967254638672,"9":1.2115392684936523,"10":-5.330836772918701,"11":-10.085328102111816,"12":-8.962297439575195,"13":3.006788730621338,"14":1.3423582315444946,"15":1.044190526008606,"16":-10.502635955810547,"17":-2.847724437713623,"18":5.2713470458984375,"19":-3.820626974105835}}}],"outputConnector":{"rows":2,"columns":20,"weights":{"0":-12.372994422912598,"1":-26.952342987060547,"2":0.12096797674894333,"3":3.713162422180176,"4":0.9656387567520142,"5":7.180423736572266,"6":-12.014084815979004,"7":-0.43180495500564575,"8":-1.5506445169448853,"9":-0.43617695569992065,"10":-4.168983459472656,"11":5.916580677032471,"12":-6.829936504364014,"13":23.20217514038086,"14":9.07803726196289,"15":17.729320526123047,"16":3.272690773010254,"17":-0.34483441710472107,"18":-2.0924408435821533,"19":1.023705005645752,"20":5.8161540031433105,"21":-4.4339165687561035,"22":-16.8931827545166,"23":12.67298698425293,"24":95.29414367675781,"25":-24.995628356933594,"26":19.502857208251953,"27":-65.20598602294922,"28":13.232209205627441,"29":-9.121710777282715,"30":74.17945098876953,"31":-21.517311096191406,"32":-13.514017105102539,"33":7.991714000701904,"34":21.526182174682617,"35":20.95680809020996,"36":-15.014352798461914,"37":-8.05527114868164,"38":-59.38217544555664,"39":-13.247867584228516}},"output":{"rows":2,"columns":1,"weights":{"0":-33.4315185546875,"1":-3.6108481884002686}}}